{
  "weights": [
    [
      [
        0.24720587348376902,
        0.49501860355676985,
        0.30720183240166965,
        0.08951854948299531,
        0.1639808911611901,
        0.33945027805876976,
        0.0336353491097797,
        0.12730275556334494,
        0.3053016744725685,
        0.09596320590162499,
        0.3307364210267947,
        0.142417849655157,
        0.11927781908444399,
        0.14611214966461916,
        0.14898436145887534,
        0.3482101547904064,
        0.4446053839927272,
        0.10366059399248799,
        0.36944735575018506,
        0.25782647958140215,
        0.07818279007068034,
        0.2771570714166291,
        0.5428517359494234,
        1.0091210300980344,
        0.30341311298501933,
        0.13634674772760072,
        0.35137860461004966,
        0.3368883563260328,
        0.11129211716287322,
        0.2629935259818671,
        0.08779587534749773
      ],
      [
        0.10871161097396868,
        0.11650793851690469,
        0.04860684178129577,
        0.04681515662905172,
        0.13894584896227316,
        0.1686864257229215,
        0.19377236090684818,
        0.025408442832045075,
        0.18698752224972864,
        0.20814602934822163,
        -0.09574420542180574,
        0.16558229906231156,
        0.08032390724139267,
        0.014791031410440006,
        0.22522968567021961,
        -0.03947617544855613,
        -0.16281930605616177,
        0.39358607726696726,
        -0.012009274289037497,
        0.15374047844243513,
        0.056746786667186175,
        0.09299636932673597,
        0.027161964673492942,
        -0.16571427091846594,
        0.12058777002667069,
        0.11850263132086385,
        0.07050071532645451,
        0.1366647049637445,
        0.07671081429185994,
        0.16630419657759196,
        0.14329157819102278
      ],
      [
        0.16137701665618884,
        0.09196105666437072,
        0.24745228250635942,
        0.09321505831315487,
        0.34428657701427945,
        0.052292449581306834,
        0.3322868517803438,
        0.10029896955436282,
        0.27245961104007554,
        0.18488552500721395,
        -0.96505433374808,
        0.13342377341741202,
        0.09227652332143242,
        0.15895373585011666,
        0.5056317951680278,
        -0.8033613509129982,
        -0.7557926962780503,
        1.9784896373742749,
        -0.21055763362225793,
        0.2417600308297066,
        0.25907779196856057,
        0.1222352504646825,
        0.20304605102247847,
        -2.0400228423224456,
        0.24559635312421474,
        0.21710062600402913,
        0.2240951818419048,
        0.7350353478354434,
        0.07058190785966073,
        0.10117249668062067,
        1.2195939352734502
      ],
      [
        0.17478011146176575,
        0.023285948418195944,
        0.14048968374221865,
        0.08773028209483906,
        0.18702702683124747,
        0.027867109688560918,
        0.145478737787492,
        0.040424449642874755,
        0.006750609772265059,
        0.06736557653658638,
        -0.04510236101502373,
        0.01420429837437741,
        0.049045246274122434,
        0.1772800870901569,
        0.15612008769272437,
        0.11886636532677422,
        0.08667326456028948,
        0.09033506383872277,
        0.11801034515092296,
        0.0690943654381288,
        0.09732614233396682,
        -0.00878334768960975,
        -0.019695774180182573,
        -0.01934919932605395,
        0.05414855203065909,
        0.16615409729189112,
        0.07469698203082877,
        0.03331894969316066,
        0.07168935956954213,
        0.08293418051205391,
        0.36422768946965656
      ],
      [
        0.0032844585418951486,
        0.09029630763424215,
        0.1596950926651711,
        0.05011951622462237,
        0.014395667814454982,
        0.13272980745246737,
        0.09074631416365382,
        0.15290706797426162,
        0.15017536247507624,
        0.11177255983301282,
        -0.004702122257807513,
        0.20301613110714284,
        0.008168504396907651,
        0.10432785022507547,
        0.06322979223064373,
        0.11685678218800953,
        0.04335453606392496,
        0.2085108592122413,
        0.1424778752065036,
        0.13278308854144447,
        0.061801387571700776,
        0.09399447716836924,
        0.0472660641634208,
        -0.04528434005728334,
        0.04376473534478748,
        0.033151609891431046,
        0.02383418874620627,
        0.16026581139884805,
        0.0760495513067281,
        0.0956495062606181,
        0.06180117918302665
      ],
      [
        0.06208508716982359,
        0.11307472348105731,
        0.11009409140564427,
        0.04458037914781271,
        0.09330190033504752,
        0.031136902394560507,
        0.060371937295638355,
        0.14737224211672595,
        0.1735981756848981,
        0.03157802369412952,
        -0.03892975373662309,
        0.09519074798917262,
        0.17711383747698917,
        0.011069708250139886,
        0.13991283176105632,
        -0.16456127402557386,
        -0.1552013515822988,
        0.694736234767711,
        -0.009026836564674047,
        0.17577902624609865,
        0.17168191873697597,
        0.06743324390992245,
        0.08061759778929896,
        -0.484536081701573,
        0.05478643455537724,
        0.16743748557368937,
        -0.0024235293175157045,
        0.4072440197051807,
        -0.035293175067353376,
        0.09458903981462627,
        0.20419121077098973
      ],
      [
        0.12759743873459467,
        0.008519912459292938,
        0.03981126521927793,
        -1.8889713444533904e-05,
        0.03758951605182378,
        0.058865843107448135,
        0.09798253909660293,
        0.0836240585488855,
        0.07771327099595964,
        0.19901852946252682,
        -0.012491249755572136,
        0.1700764277907085,
        0.06143724600446423,
        0.15117599321654873,
        0.19018186873514775,
        0.010414881621691506,
        0.08144036011477536,
        0.20882876881112286,
        -0.0017702296846844293,
        0.12053823702781007,
        0.1231675677156516,
        0.0005140384030187616,
        0.1771759093203797,
        0.02650032957647352,
        0.0361717537360901,
        0.16675467497926064,
        -0.009393297788899345,
        0.15425955359700094,
        0.08703684853777102,
        0.10640791887953628,
        0.23075716315542652
      ],
      [
        -0.0023238962464671685,
        0.14247208239648618,
        0.09524342176539674,
        0.09525207370451957,
        0.00992503425659526,
        0.10531954310362206,
        0.14038332256485603,
        0.1173094865417734,
        0.08930125633293814,
        0.10104302870610894,
        0.06597005408344263,
        0.20035816928241268,
        0.19927901167323,
        0.025763348116898593,
        0.07353653440756551,
        -0.003995796823608063,
        -0.018023208672094622,
        0.4195054238505428,
        0.07793361927218774,
        0.07316949188921802,
        0.0916969529325094,
        0.04497936964099471,
        0.15720814819776235,
        -0.10102472845252648,
        0.0291501019253896,
        0.13105231956755192,
        0.11147994479472176,
        0.24092259290275267,
        0.0036956557127338307,
        0.10493053256167935,
        0.17706789608029042
      ],
      [
        0.035598181215462245,
        0.12449743968478133,
        0.35413067458593417,
        0.06968655381853398,
        0.2777486855693049,
        0.007176858150160417,
        0.3164889278150646,
        0.17162190185619547,
        0.2716570246401846,
        0.4778674575194125,
        -1.8224845400224539,
        0.320614443835834,
        0.3805035604876592,
        0.20591441084213816,
        0.8048245166224286,
        -1.7965705302945247,
        -1.917473110305569,
        4.3047123024159815,
        -0.2272419319664613,
        0.3225498187867996,
        0.36562193429314854,
        0.1754917188562772,
        0.3915840827332673,
        -4.481175965265874,
        0.3473104703210978,
        0.4093382964103368,
        0.3327649869072969,
        1.8877559165605957,
        -0.24824819551659588,
        0.2457496713338995,
        1.3645312748697371
      ],
      [
        -0.13187891651868833,
        0.3216809000244407,
        0.46932570540836027,
        -0.24930023477650584,
        0.7280786856059485,
        0.2732134855966557,
        0.7089216731434801,
        0.06554964099615927,
        0.7456940937527209,
        0.8417064761548295,
        -6.293284893635084,
        0.8598005092894556,
        0.8257566079303891,
        0.43662713211990345,
        2.424038950817693,
        -5.292355809541482,
        -5.248202140224303,
        11.08676491041373,
        -0.6738606997053342,
        0.7184736046580196,
        0.6197624690016154,
        0.06499008729116305,
        0.9229352689593519,
        -12.313632799532035,
        0.4451190341577577,
        0.5521482750570043,
        0.8003436892067939,
        3.4321707252604905,
        -0.4418338420408241,
        0.35543732785695853,
        3.71226771572223
      ],
      [
        0.06325825411844373,
        0.06987888838912774,
        0.12652131305467568,
        0.1600038422460212,
        0.14456479104548942,
        0.15001781740297054,
        0.0747560713593223,
        0.036136697133940084,
        0.20620006417674241,
        0.21691944973327865,
        -0.07580304550706532,
        0.19295078733882978,
        0.08555387929135233,
        0.09721589862189269,
        0.14040979422558167,
        -0.02466932995191238,
        -0.15893170719112654,
        0.473348946679558,
        -0.011143662085210544,
        0.15709473430445603,
        0.12406307040893648,
        0.06685259998429587,
        0.08401023558236194,
        -0.27447452110886505,
        0.08710690901870674,
        0.007689179653364724,
        0.06226263473243268,
        0.13679082944559548,
        0.06729745577069925,
        0.12702000519150528,
        0.13367754872760446
      ],
      [
        0.032966664929229415,
        0.05682712581742022,
        0.14778391210991682,
        0.1018079343747134,
        0.1171366551004651,
        0.03822583353242262,
        0.12368887675165548,
        0.08777592549215088,
        0.06288593888088351,
        0.1883952871553778,
        0.004141768034883626,
        0.06611437857773743,
        0.05913195368672676,
        0.15110718234242018,
        0.21905491404029245,
        -0.1467065173411229,
        -0.18522452277284224,
        0.6415007394240279,
        0.08023282522303007,
        0.17886350183802419,
        0.27939344400564975,
        0.08179598931365566,
        0.059329204980449676,
        -0.4865099045259105,
        0.08596595635503895,
        0.2064400646916087,
        0.035526771408795094,
        0.4705314515224645,
        0.011244150882547689,
        0.09321734862079374,
        0.5624698659396151
      ]
    ],
    [
      [
        -0.01644272721673325,
        0.04982841941316596,
        0.27600774512283427,
        0.04187249422344093,
        0.134991178291116,
        0.09085614344154769,
        0.08065828521690167,
        0.11907689192220146,
        0.24594906666718178,
        0.4888987619613637,
        0.08662839328743871,
        0.15332219654601795
      ],
      [
        0.009447607850694829,
        0.05620359241055051,
        0.07605473945614585,
        -0.0027511499887788583,
        0.07501943630024785,
        0.12686786166126818,
        0.10727671297022849,
        0.16619355213890205,
        0.08737524915560761,
        -0.08284113243150769,
        0.04128930479720281,
        -0.01532897856942257
      ],
      [
        0.1577421794930775,
        0.06859939956056194,
        0.053316726921160525,
        0.04480453172086363,
        0.126892054706097,
        0.03949132592408958,
        0.10214751858619343,
        0.12180789392254039,
        -0.025266952315529202,
        -0.06960956484865766,
        0.013532216251805465,
        0.00144660420703825
      ],
      [
        0.20769520832544425,
        -0.0012401659915635462,
        0.08781328205265551,
        -0.003267009766891739,
        0.11433745036185619,
        0.16090410943765593,
        0.17652709094675467,
        0.03693916426961795,
        -0.05019481071091766,
        -0.08467693055353878,
        0.072919714347274,
        -0.0453062334818971
      ],
      [
        -0.20616728733191492,
        0.09282269459868973,
        0.3394751930739696,
        0.08184462433695186,
        0.05965006250268846,
        0.1962133836545087,
        0.07496800964149297,
        0.11897815879061742,
        0.5564370000912939,
        0.6837632621785751,
        0.16268804225822303,
        0.17442411076847003
      ],
      [
        0.13048735265537098,
        0.07103691226013485,
        0.09896308196782934,
        0.15947992454496826,
        0.0846737193258407,
        0.04344743247390673,
        0.1560133181310318,
        0.01234694192275528,
        0.08864553373027438,
        -0.13709949472390653,
        0.15249102178170754,
        0.07517307618625632
      ],
      [
        0.12214557177386944,
        0.06434020086896917,
        0.009147062971699475,
        0.11029685524959412,
        0.09043897631480963,
        -0.005663620508236131,
        0.11311389235473226,
        0.07382039183883939,
        0.014639439551412356,
        -0.05243594462797841,
        0.12909580780696478,
        0.04454829516127187
      ],
      [
        0.1892381758371808,
        0.05986024356363588,
        -0.0009706641789268208,
        0.03604087702282232,
        0.1664323066904101,
        0.09825983348497325,
        0.09186270012856322,
        -0.0018810133099603735,
        0.04821693016983738,
        -0.07817517685846449,
        0.057048064190342154,
        -0.045471064228454004
      ],
      [
        0.3306141915584854,
        0.07903193080698824,
        -0.03395911358861516,
        0.13250054963877092,
        0.054468517677807186,
        0.044901485152496194,
        -0.0037615151040471034,
        0.16539768419106857,
        -0.0695396549385528,
        -0.08862235766887505,
        0.10002245666052795,
        0.13068526710457826
      ],
      [
        0.31986369835311756,
        0.02554727126528151,
        0.07411477246372619,
        0.16468451693612934,
        0.10017528991275135,
        0.16920634582952981,
        0.20136765060299272,
        0.0599239670625309,
        -0.055952011285015125,
        -0.1480963291235099,
        0.1844647565412918,
        0.045143625586142884
      ],
      [
        0.062165002489675485,
        0.16993883982556804,
        -0.04473416585295317,
        0.16940599161086795,
        0.05662876072999587,
        0.12856347652674224,
        -0.01324859432499565,
        0.04265376471054357,
        0.1119779515284463,
        -0.08102688890364466,
        0.14852811948140132,
        -0.006171911431777944
      ],
      [
        -1.2048862063316044,
        0.09621233667431317,
        0.8340412056895554,
        0.08499660865095476,
        -0.096837832347354,
        0.28494459090456087,
        -0.1180792285774789,
        -0.10923187465636397,
        1.163716977804228,
        1.9727338961319745,
        0.2867976265703284,
        0.25999984123708286
      ]
    ],
    [
      [
        0.052633863116478906,
        -0.10988275908475642,
        -0.48566063991330466,
        -0.49974404445805415,
        0.09228335610095224,
        -0.4350712483082366,
        -0.3238781946713637,
        -0.36270792706535965,
        -0.6590978523326753,
        -0.773565440549438,
        -0.1970925288459214,
        0.24359430728108847
      ]
    ]
  ],
  "biases": [
    [
      0.5165787965187412,
      -0.14631069161563223,
      0.14886587684826447,
      -0.19320975358757375,
      -0.1734519187509566,
      -0.10727747963890884,
      -0.09237467639825868,
      -0.16004215874287125,
      0.1491522644833589,
      0.3649954240281936,
      -0.19310883781761023,
      -0.12165122168237921
    ],
    [
      -0.15788250982500054,
      0.008918628640993345,
      0.29134609136458395,
      0.3190031652955718,
      -0.27053956010006414,
      0.32983690055423115,
      0.1117958874812932,
      0.1265770725689128,
      0.33031968410808055,
      0.5437185760749655,
      0.09726178111631885,
      -1.2171698573999024
    ],
    [
      -1.8699913004631559
    ]
  ],
  "activations": [
    "relu",
    "relu",
    "sigmoid"
  ]
}