{
  "weights": [
    [
      [
        -1.786996657384993,
        -6.9654356614145065,
        -2.3982823820625407,
        -3.475248039285329,
        19.372887790712632,
        -3.990608385519556,
        -1.6452172127661489,
        -3.068880278514916,
        -1.1724977713308053,
        -7.176802775864147,
        -2.126156667548599,
        -2.0864611575476886,
        1.817202190608728,
        -3.579014827334963,
        0.3227412561528593,
        22.60490509689166,
        23.141748527571096,
        -56.914379625963235,
        3.3261633739686047,
        -4.5941637004947085,
        -5.2472029583160085,
        -5.239435150166481,
        -15.059127033461023,
        36.764483003122976,
        -8.605288481455101,
        -0.5674822190259469,
        6.829686040429215,
        -19.525249084443328,
        -0.8090706562216973,
        -6.380119991491673,
        -20.101173269189232
      ],
      [
        -2.191300141761655,
        -7.48622578030131,
        -2.3717031384629457,
        -3.8239246441589487,
        18.490789995627175,
        -3.765738534383911,
        -1.5760125922068866,
        -3.4310501213002147,
        -1.4287712713494436,
        -6.876514094766702,
        -2.2615906993951365,
        -2.561233781511167,
        1.3596899411980217,
        -3.971667127141781,
        0.47334130026447807,
        21.837845865689108,
        22.767968870040935,
        -55.99129808155027,
        3.3010214581578325,
        -4.305352653331153,
        -4.6096315756325215,
        -5.588323275202702,
        -15.069646109835626,
        35.8814886686662,
        -9.392174331363588,
        -0.27450820720180474,
        6.333242014026583,
        -18.00643250751667,
        -0.3664579012692449,
        -6.5319068063498875,
        -20.099493259521484
      ],
      [
        -1.3967225052605365,
        -5.39707582157266,
        -1.4094334425532526,
        -3.1360550779010175,
        14.453480957959426,
        -3.304971357874888,
        -0.9208333708427952,
        -2.461572032764583,
        -0.9948014229543419,
        -5.401298302125392,
        -1.5593842179511546,
        -1.8969994421873462,
        1.4595826749124945,
        -2.925058385548988,
        0.4892299162869298,
        17.23003734839928,
        17.731771760448904,
        -43.65461023867903,
        2.9098662303271334,
        -3.4897690871521614,
        -3.2164223410481574,
        -4.115339173345372,
        -11.485165174399492,
        28.29098509471867,
        -7.516287211796405,
        -0.09134226648082996,
        4.9610342851713805,
        -14.170800639945677,
        -0.15307352701906013,
        -4.813755164854788,
        -15.984573236185293
      ],
      [
        -2.227552211858412,
        -7.78928940878485,
        -2.752429601691946,
        -3.832078414565743,
        20.133749767467393,
        -4.5922476243134795,
        -1.4585715325165238,
        -3.543263047929665,
        -1.276223470738288,
        -7.386427963985062,
        -2.5724688630908976,
        -2.5629783853998416,
        1.8019424888775504,
        -3.7273821522139903,
        0.1055339500048879,
        23.52538996277436,
        24.434422715655412,
        -59.466698779484005,
        3.430763238909909,
        -4.8572762777964975,
        -4.323052424863242,
        -6.089008568108232,
        -15.05076971108732,
        38.76089912099543,
        -9.881648220934817,
        -0.5947328540969887,
        6.669702228821917,
        -19.887021719032525,
        -0.7299110203948465,
        -7.36754093608873,
        -21.220946203393584
      ],
      [
        -1.9565360701910581,
        -5.897677146362605,
        0.45795919215198355,
        -3.225401770803801,
        10.164061192315032,
        -2.3811850484640407,
        -0.6853282024966417,
        -0.3514410470359471,
        -0.35802596945781634,
        -3.842890829214776,
        -1.2630455357345738,
        -0.7180351136313116,
        1.519714633376009,
        -2.6340444312198694,
        0.18555706816664838,
        13.71937465870614,
        14.52448342538421,
        -36.340721388904,
        1.6056265884396483,
        -3.088182694224399,
        -2.396925470768966,
        -3.436812137176067,
        -11.692345346766528,
        23.124850823332725,
        -4.219399569797274,
        2.1142684841762045,
        6.886310917823155,
        -9.349523010209268,
        2.7105306856055997,
        -5.097884106878395,
        -13.641564109719202
      ],
      [
        2.090423909752072,
        2.502125820620517,
        1.048236848288903,
        -2.6339511503550685,
        31.33694846247464,
        -1.7419933161656185,
        -0.738844782157558,
        -3.7699030890371867,
        -1.1473868439401365,
        -5.814764599290904,
        -2.3763129465851485,
        -2.4924243903665886,
        1.770266120053206,
        -4.511119778932905,
        0.4568971191338,
        29.47224845909733,
        31.429625220702917,
        -54.82783135544111,
        8.157172462927095,
        -2.943362670049867,
        2.7039806798660906,
        -2.589170835043277,
        0.11068040627696143,
        50.16990027108705,
        -1.437499775485902,
        1.7169897055258052,
        1.029439297391254,
        -24.64644556542018,
        1.2163993485551006,
        -3.6538360753410077,
        -25.683598732552564
      ],
      [
        -2.0154952233975267,
        -8.315958993514414,
        -2.332190786689878,
        -4.37557655603699,
        21.488733128937085,
        -4.387117424210838,
        -1.5249785370346434,
        -3.5752780600826948,
        -1.0663069985892353,
        -7.504306688065472,
        -2.250718300590232,
        -2.4942656978024074,
        1.6110095710123091,
        -3.9570326886322675,
        -0.05496700263107998,
        24.36720103874715,
        25.47614505504467,
        -63.05929661159449,
        3.889677433396508,
        -5.015190600458081,
        -4.4542015590036845,
        -6.60925211516835,
        -16.34927672355689,
        41.24887798373698,
        -11.05021700317054,
        -0.8055617744163874,
        7.210547565419506,
        -20.430803038495377,
        -0.512900911209954,
        -7.088003606803664,
        -23.20809317157577
      ],
      [
        -2.3997898429297724,
        -7.957094962433157,
        -2.682384132658663,
        -3.8634511412110597,
        20.70420347594279,
        -4.188969743008915,
        -1.87145673739965,
        -3.4239790894438187,
        -0.8975867646517485,
        -7.440422224097728,
        -2.6224499537691734,
        -2.6600777477556132,
        1.5794555178587175,
        -4.048181665353524,
        0.31398591494131267,
        23.89955191853237,
        25.461350287150886,
        -62.69668526721093,
        3.8880368659431648,
        -4.974177825090516,
        -4.81659553440566,
        -6.4383200905459566,
        -16.713858943703862,
        40.45132385842891,
        -10.980558071835498,
        -0.2718321081174094,
        6.153570041798637,
        -20.61828363371233,
        -0.6365223669855679,
        -7.974488824005831,
        -22.364867892033292
      ],
      [
        -2.011390849921051,
        -5.483852456929511,
        -1.302211904742001,
        -2.392408533784394,
        12.919574793278967,
        -3.4883368527512673,
        -0.6801140652389139,
        -2.053458662198069,
        -0.819179227626775,
        -5.075523783524834,
        -1.4930588606837016,
        -1.1440925836871558,
        1.2801284802643305,
        -2.554061649877529,
        0.47230787099648963,
        15.753451232277477,
        16.449160018634537,
        -41.421097598249816,
        2.01186185789413,
        -2.9610742359640354,
        -2.905510043986296,
        -4.184707503783046,
        -11.7356632942192,
        27.016812033706476,
        -7.479653595460618,
        0.05467342916302015,
        5.290326865527355,
        -12.508049712682793,
        -0.4285113268010733,
        -4.524595044240333,
        -15.455786116413678
      ],
      [
        -2.0699092274116073,
        -6.275496528634334,
        -1.7880871590493477,
        -3.0138669887647875,
        16.553265468540594,
        -4.194361195671346,
        -1.0785045840953447,
        -2.766284765455212,
        -0.6377066633916721,
        -6.241200820073201,
        -1.9563177549112476,
        -2.1657163081237205,
        1.8011482260711822,
        -3.704253398538754,
        0.2601181094889307,
        19.945973511192108,
        20.130853118422735,
        -50.68863412657975,
        2.9543676424872922,
        -4.167586660281688,
        -3.754769015810424,
        -4.828417649495412,
        -13.965926517553857,
        33.31774352208101,
        -9.053749247128033,
        -0.5669788796331353,
        5.964850986525441,
        -15.620452585650497,
        -1.144269569611911,
        -6.135680509527023,
        -18.45601177845301
      ],
      [
        -1.7894622726034126,
        -6.381159486718884,
        -2.2055202082930228,
        -3.1630626566916225,
        15.62441689198229,
        -3.640888687554367,
        -1.3596544052658728,
        -2.6500330619704173,
        -1.119418390204634,
        -5.819666296237867,
        -1.5323294932048621,
        -2.1985845594933244,
        1.68497304034055,
        -3.1187325906454264,
        0.6932658487385559,
        18.27347901692902,
        19.82351267475931,
        -48.00229036568885,
        3.0626974073598134,
        -4.052798938814337,
        -3.8193434936379274,
        -5.051019657970268,
        -12.29454883083987,
        31.057338443598947,
        -7.688873750920982,
        -0.2564548011234183,
        5.483948349541389,
        -15.574380682752642,
        -0.4441971861013618,
        -5.518960937007327,
        -16.769931873336883
      ],
      [
        -1.577245670294538,
        -5.310054554530167,
        -1.5351821287308687,
        -2.2646193368925176,
        13.469590573430388,
        -2.839118591884593,
        -1.1720943303417457,
        -2.4522052943328125,
        -0.5444045974477012,
        -5.1172544726216636,
        -1.3757747779201916,
        -1.5412937128336333,
        0.9472040988057628,
        -2.844626625236811,
        0.15418680474537055,
        15.699599304027116,
        16.656159182226887,
        -41.438242347474656,
        2.4744756895773055,
        -3.2466467521924063,
        -3.229108886419891,
        -4.085285911894062,
        -11.194919096479387,
        26.446096174488897,
        -6.877682391697393,
        -0.30156353506966777,
        4.97275524516956,
        -12.761156043334598,
        -0.5388968202065504,
        -4.3118734563488905,
        -14.342547678708387
      ]
    ],
    [
      [
        0.383440187029982,
        0.7091285274623321,
        0.19796733158949534,
        0.568093172558583,
        1.5950370694276506,
        0.2601569702991117,
        0.7293566695320078,
        0.20919694607076597,
        0.760232979372566,
        0.6098282237846497,
        0.5219888987711411,
        0.26788114353523595
      ],
      [
        0.8276877775108613,
        1.285650237031176,
        1.0430972620642556,
        1.0291229151208556,
        0.34839994774281063,
        2.0485651956708746,
        1.126487135034485,
        1.1408273891202088,
        0.8097934573054435,
        1.1308550444372911,
        0.8963989649852322,
        0.42780509348414997
      ],
      [
        1.265836429731197,
        1.4557571978522375,
        0.6110601539634055,
        1.2885399683626628,
        0.7291292374860745,
        1.8117860609146497,
        1.1290417794718004,
        1.549744167887433,
        1.069850972942919,
        0.8870289807199472,
        0.8147002226286995,
        0.7880925503387387
      ],
      [
        1.4568742444996443,
        1.2418018683558003,
        0.7708685490351971,
        1.1940621758364176,
        0.6358063589740698,
        1.147466124893678,
        1.1385811244660122,
        1.082894361364022,
        1.0164256193931132,
        0.9845774957312127,
        0.9028928024671575,
        1.1895928831522655
      ],
      [
        0.5830396775258498,
        0.40213992643187074,
        0.9243670471814784,
        0.6257865755647642,
        0.9617960178868921,
        0.5978405433045162,
        0.407278216334501,
        0.7009555054685985,
        0.8913353579989812,
        0.5397657217262652,
        0.2994807801713162,
        0.8383195869426004
      ],
      [
        1.546231844013733,
        1.4245629421950128,
        1.3500061014532763,
        1.7689669004235093,
        0.6824808988008125,
        3.2989416594895857,
        1.9422766335897077,
        1.590138471399769,
        0.7226197613151496,
        1.189705765830661,
        1.4692722144999013,
        0.9768457679160066
      ],
      [
        1.6906054616341832,
        1.1582081923852432,
        0.9452238579905086,
        1.8087926746919498,
        0.7251522890873318,
        1.7027874323410144,
        1.7649850596676195,
        1.8422134046204248,
        0.8736198889016834,
        1.5438806512622918,
        1.2602277397982051,
        1.0721052238043625
      ],
      [
        0.19291334503923308,
        0.4009201343683824,
        0.3179340772111843,
        0.3257583339499979,
        0.5437059145520318,
        0.293141757840866,
        0.5136208365634385,
        0.45209385457771434,
        0.7443448585771597,
        0.7179616237020466,
        0.7292613673988338,
        0.7674019437865943
      ],
      [
        0.9544182682984371,
        1.3595805542148707,
        1.071938315581864,
        1.2165067330823638,
        0.9760338673975364,
        0.985155613885435,
        0.8782839711903272,
        1.1497679671074494,
        0.6925190831083451,
        1.3833944801723317,
        0.9362896972716389,
        0.8194076952707016
      ],
      [
        0.6328887886220783,
        0.8068868947993573,
        0.6385469635436088,
        0.32341077515257904,
        1.6675678795250235,
        0.8262113630838809,
        0.9476354401895603,
        0.985849148495138,
        0.7149362227690198,
        0.3153274577141396,
        0.5052636134116602,
        0.4636652544276801
      ],
      [
        0.3107234202637058,
        1.0596095761841144,
        0.4054490266747859,
        0.6963791486491784,
        1.1175347911406275,
        1.0371670327925175,
        1.1924605420903431,
        0.6571849932934235,
        0.9275293991881959,
        1.1212706219714057,
        0.66268139693038,
        0.3912378449246663
      ],
      [
        1.1812565883810564,
        0.6047785559256407,
        0.9211495268055497,
        0.777940612210665,
        0.6159305493880389,
        1.0493488631380505,
        1.3742065122569296,
        1.2555638586764208,
        0.9095922674083396,
        0.5659206632248415,
        0.8409862208673609,
        0.9728543311481225
      ]
    ],
    [
      [
        -0.39573384841572534,
        -1.3867620637836535,
        -1.4124340799217385,
        -1.3319538803019386,
        -0.5712779287048956,
        -2.0078841017684237,
        -1.8287749789795618,
        -0.4594288771938331,
        -1.2005594591889417,
        -0.6134035214874294,
        -0.787946631242324,
        -1.0963606390913563
      ]
    ]
  ],
  "biases": [
    [
      -12.484023642314009,
      -12.425823711379364,
      -9.877423809593484,
      -13.017271544877785,
      -8.691717898798327,
      4.861797661457119,
      -13.849912547400258,
      -13.6905491147283,
      -10.171537288676863,
      -11.690165893447771,
      -10.770879996927105,
      -10.04943522086063
    ],
    [
      -0.5599472496366035,
      -1.9606019067941312,
      -2.250772999290055,
      -2.1261282250602767,
      -0.9118585305055026,
      -1.5183309558516336,
      -2.8681429685534874,
      -0.7247430434877244,
      -2.0626352627606868,
      -1.0696700070881955,
      -1.4081693104552564,
      -1.7489970335077958
    ],
    [
      2.3038165060382005
    ]
  ],
  "activations": [
    "elu",
    "elu",
    "sigmoid"
  ]
}