{
  "weights": [
    [
      [
        -0.06064115083153069,
        -0.08238673037209789,
        -0.045416101123533156,
        -0.15852752319159258,
        -0.09629033546431671,
        -0.09160407394491206,
        -0.04797466980825975,
        -0.10929825441072998,
        -0.059922539180419176,
        -0.14168600302352966,
        -0.14427637398093177,
        -0.1368884566082442,
        -0.06805262047666119,
        -0.14166719600493705,
        -0.07053535335697313,
        -0.14480971623421787,
        -0.18935730829805533,
        -0.14332591173724651,
        -0.1740101291780593,
        -0.0618869785316942,
        -0.05224409864835988,
        -0.05840781081601651,
        -0.09219325285729099,
        -0.08872775044365769,
        -0.008864385048440743,
        -0.1130403322834349,
        -0.1277308785978724,
        -0.10834980223527177,
        -0.16461147160214157,
        -0.062489400776609694,
        -0.0175677297970316
      ],
      [
        -0.03746596381436649,
        -0.06898149534973466,
        -0.08625615687777445,
        -0.1303005531462721,
        -0.02859773554565368,
        -0.07040434786797045,
        -0.1772586006417645,
        -0.04596916145424207,
        -0.07828141173716875,
        -0.0810263442252193,
        -0.128141217336364,
        -0.13650852139516498,
        -0.17885803716228174,
        -0.04404105079736145,
        -0.16958793628358043,
        -0.18051417755451185,
        -0.14573066097681683,
        -0.1200994477579625,
        -0.10366328521486694,
        -0.030270196537347933,
        -0.058306281446063556,
        -0.07954972074574307,
        -0.033699267589877395,
        -0.13663119318565034,
        -0.0976351529293864,
        -0.06967360107725397,
        -0.14581577477389357,
        -0.006183921175750373,
        -0.06703150925201293,
        -0.1605151375541524,
        -0.0376413978238678
      ],
      [
        0.0036466518951483754,
        -0.1286696540654869,
        -0.18840072018341303,
        -0.19234031156017592,
        -0.1585870807547804,
        -0.08825152349620212,
        -0.16336036669430556,
        -0.001315668649126606,
        -0.00632901716400453,
        -0.02170815185570793,
        -0.18700971239580771,
        -0.13811856562422692,
        -0.09850560588232549,
        -0.18440126015939218,
        -0.1519303447724979,
        0.0004824706376501965,
        -0.13642363195886517,
        -0.15792761314038303,
        -0.17303913547522204,
        -0.002424552635781507,
        -0.06549987103172579,
        0.003610660593431694,
        -0.12075759440779413,
        -0.09586644842889575,
        -0.0200805692983404,
        -0.19840614450642974,
        -0.21425206516564194,
        -0.02393146613231813,
        -0.016606814590712664,
        -0.0586658069602718,
        -0.07819429634059787
      ],
      [
        -0.09880822502391826,
        -0.13133651538088853,
        -0.11834110476752144,
        -0.015693644105056626,
        -0.16649966785884707,
        -0.11096289450961119,
        -0.1443363864454326,
        -0.1369875961792621,
        -0.06393923789107889,
        -0.13153786315688315,
        -0.02154866560348227,
        -0.036061136138294224,
        -0.1639402602061787,
        -0.06385564544699862,
        -0.007335605913862951,
        -0.017021741117056687,
        -0.07991739237694664,
        -0.17102185930665362,
        -0.05674581173780809,
        -0.04058896927090032,
        -0.10030352849976128,
        -0.16189118555787843,
        -0.14207954406201234,
        -0.08713093557847229,
        -0.1346704155749629,
        -0.14041065016352478,
        -0.023014931481711826,
        -0.07972851996562401,
        -0.1705750675133199,
        -0.07492260801191827,
        -0.11575992987018248
      ],
      [
        0.04800785702386377,
        0.19425502096616815,
        -0.08342718928325663,
        -0.0877202400176031,
        -0.16330079925205507,
        0.047131673433262036,
        -0.17457860690423843,
        0.008033048060050762,
        -0.16447070732309974,
        -0.07932781572950147,
        0.37945414037323183,
        -0.11466328630459918,
        -0.12264540412750691,
        -0.028957815608427914,
        -0.10437923617783597,
        0.61493296939992,
        0.30195628313887996,
        -0.5875365449207665,
        0.1975773425683937,
        -0.05603636878070017,
        -0.05755907775712358,
        0.14962575071776507,
        0.32068628857080916,
        0.24185631268216365,
        0.2422305882449543,
        0.032463611291491994,
        -0.13719952977482494,
        -0.3258620097912011,
        0.09243323922817871,
        -0.217163176294162,
        -0.3040675130020699
      ],
      [
        -0.04119877668753721,
        -0.1647074658244008,
        -0.05671505948050649,
        -0.10678428137647814,
        -0.1031474592493334,
        -0.10378647265353687,
        -0.1063410535457861,
        -0.06797214248450333,
        -0.06670046591717028,
        -0.14035959978434814,
        -0.1429426982530993,
        -0.17378936528205058,
        -0.025851631159716604,
        -0.12307300873835592,
        -0.12390762033102688,
        -0.07110623135571564,
        -0.0483760906306582,
        -0.16938120872957285,
        -0.051746864762942185,
        -0.15158161627154887,
        -0.05398822270886614,
        -0.04373925114660023,
        -0.18617222524833488,
        -0.008398053785602499,
        -0.11825781518921676,
        -0.05788844920441652,
        -0.1762782265007771,
        -0.18864643628752736,
        -0.03304797431331991,
        -0.08628949982678201,
        -0.08127655080876699
      ],
      [
        -0.003980320842764763,
        0.030976092718398646,
        -0.09056115615190578,
        -0.17304861626542473,
        -0.1942359264471328,
        -0.12375531519404118,
        -0.14073459497401358,
        0.003688891777731848,
        -0.1458070962931792,
        -0.10947814268832415,
        -0.0025822104901664098,
        -0.08559594150030327,
        -0.009488478356031638,
        -0.12595340888144504,
        -0.02853784058928318,
        0.08943820287029798,
        0.016548146414222788,
        -0.2829984517792468,
        -0.1222707399150933,
        -0.0997172814409723,
        0.01599100586216115,
        0.024344206052355107,
        -0.03782474831784814,
        -0.07327141456338654,
        0.024548814580531726,
        -0.19723185131089216,
        -0.09984025113085983,
        -0.038028763820102604,
        -0.11664095125884132,
        -0.12553607566947525,
        -0.14235066515788758
      ],
      [
        -0.17748000157781907,
        -0.025866704804242975,
        -0.1441540168219085,
        -0.04264363152559414,
        -0.1803837501435146,
        -0.034034535824727145,
        -0.12360246452357955,
        -0.05514054535781387,
        -0.16525164510667614,
        -0.08286219698871913,
        -0.19001606440317745,
        -0.07599640176113455,
        -0.04598357074976509,
        -0.0163410504968977,
        -0.11482769542958961,
        -0.1704949048852596,
        -0.10666023351766708,
        -0.14438424254498766,
        -0.17056295360601234,
        -0.1734430572585891,
        -0.07389986002340884,
        -0.024128834184612362,
        -0.007368757946863262,
        -0.049922409482704946,
        -0.164518664445539,
        -0.15010969452796968,
        -0.08247003275023843,
        -0.12548395831966344,
        -0.050130601325067595,
        -0.11208829491180604,
        -0.14808432735358945
      ],
      [
        -0.18772065663629778,
        -0.06796025638356253,
        -0.031505798450165025,
        -0.06583717655618855,
        -0.10470720929418398,
        -0.14011964001207286,
        -0.13036532937369594,
        -0.13291423791142973,
        -0.17089853881238948,
        -0.008854113278271084,
        -0.18171633777363166,
        -0.032480299746683795,
        -0.03041282780000077,
        -0.026936893050242185,
        -0.18776065480813656,
        -0.05901759669664054,
        -0.15002115797729715,
        -0.024432170925546667,
        -0.004349107629258962,
        -0.18442644743253087,
        -0.015608215193579153,
        -0.0796004059256065,
        -0.15999214117525834,
        -0.11046638047329602,
        -0.1480999357748962,
        -0.07669872636305654,
        -0.15199909430810474,
        -0.163988975180085,
        -0.14361838970530483,
        -0.04820011863718903,
        -0.1782993356089809
      ],
      [
        -0.011542487480224718,
        -0.046445128153704475,
        -0.17391318870498246,
        -0.10898080175333691,
        -0.1072706728490456,
        -0.1004859258170812,
        -0.013065284299623958,
        -0.08823626690552606,
        -0.030160703866539334,
        -0.17882857649506279,
        -0.14660624388140636,
        -0.0778801896424978,
        -0.16540316538972635,
        -0.15681957039507413,
        -0.024965924143659494,
        -0.18353353556130503,
        -0.13393865392387952,
        -0.1948542436081485,
        -0.11045759984348401,
        -0.05983335300421309,
        -0.13683685304928175,
        -0.06743646885506409,
        -0.18154988597663496,
        -0.16946431128030956,
        -0.047773035474125494,
        -0.08052019642406778,
        -0.2013571918391591,
        -0.058183365991615325,
        -0.08301311351189651,
        -0.042554107728514846,
        -0.034996660990379125
      ],
      [
        -0.148670983185906,
        -0.020197435507916257,
        -0.11717951864878723,
        -0.1433333468513644,
        -0.18168142830410824,
        -0.12353151205427657,
        -0.1660101816881706,
        -0.0820226747389092,
        -0.16914480719396244,
        -0.18394299678368126,
        -0.14766538505886584,
        -0.006999125383349816,
        -0.10818160430286816,
        -0.08290758477622595,
        -0.05645444953117207,
        -0.17388505313676403,
        -0.013593188816898005,
        -0.028168402439086734,
        -0.13459877789792393,
        -0.011233724487377555,
        -0.13911606699740034,
        -0.14662319883590605,
        -0.18328215288187974,
        -0.15336548923130597,
        -0.14890915639170826,
        -0.1523917045351272,
        -0.14858923264331286,
        -0.14609210716072799,
        -0.06200597603200721,
        -0.10415991843300826,
        -0.12503335648245464
      ],
      [
        -0.15873060055486993,
        -0.07435145710321814,
        -0.040584991570620656,
        -0.18340904144184494,
        -0.10736905457031996,
        -0.06545686808308418,
        -0.08177706342229318,
        -0.03910684394911142,
        -0.15298900092771403,
        -0.19706832005360872,
        -0.03889228726655688,
        -0.01589921952082638,
        -0.19128411339914547,
        -0.027684293520145235,
        -0.1590518196722139,
        -0.07070755983195433,
        -0.11105706451668333,
        -0.01912518153154621,
        -0.10731768006870059,
        -0.12387827214131349,
        -0.11377216948457548,
        -0.008386344816558674,
        -0.15923752427101923,
        -0.1743769217253335,
        -0.16359869519801493,
        -0.1845333749237851,
        -0.09800123987327003,
        -0.042164947095667475,
        -0.17865295703788475,
        -0.13901539254678358,
        -0.09203044001695768
      ]
    ],
    [
      [
        0.14865738984175758,
        0.08917446450350099,
        0.12506432810142504,
        0.18968374601731727,
        0.45582856190479487,
        0.16907015966004646,
        0.2635184422935662,
        0.0704502795422941,
        0.08036963318214901,
        0.16364626944179775,
        -0.03079083776347475,
        0.055936790732312634
      ],
      [
        -8.076394830969422e-05,
        0.0719219750696775,
        0.016204846993962067,
        0.0102855951731591,
        0.09607420711022055,
        0.014868810155724303,
        0.16717954257359527,
        0.14149750375349507,
        0.07124111243589897,
        0.13381696083504527,
        0.040777323900965765,
        0.08766521593938101
      ],
      [
        0.014788892350449348,
        0.024071531258646826,
        0.08742782910495689,
        0.08293916256847066,
        0.05806663186354394,
        -0.0012057933767342225,
        0.17725128336345858,
        -0.0019039489911804543,
        0.14679880307567778,
        0.0989043786833559,
        0.09854717051314807,
        0.13429648043114664
      ],
      [
        0.14954363809869245,
        0.0701831463980271,
        0.04530198316842198,
        0.14700880242750233,
        0.32787670765594307,
        0.03479265474355302,
        0.177230631388076,
        0.07651745916604277,
        0.11365629111381621,
        0.19663834146677991,
        0.17499661712282913,
        0.0975543790818527
      ],
      [
        0.08023992942860854,
        0.053142937434006526,
        0.0706952175673559,
        0.16058292398048266,
        0.22110432426000595,
        0.11822149482585345,
        0.12129334548700396,
        0.06270633735034736,
        0.07299021592582941,
        0.09090883707967277,
        0.0014393285209358436,
        0.06350320891951414
      ],
      [
        0.08278260703695256,
        0.015715112905647262,
        0.14677019225412494,
        0.02270302278777245,
        -0.02107499120594661,
        0.1087265019194784,
        0.12568487786619592,
        0.19574624729248155,
        0.06536859305735691,
        0.13363782741957203,
        0.11858066673110496,
        0.1896640423859063
      ],
      [
        0.12750708421224907,
        -0.00031144273613149207,
        0.1370810256959608,
        0.17001041554033325,
        0.3202224151263381,
        0.05201003720306201,
        0.17360063851903274,
        0.16631293386646429,
        0.038206345872365224,
        0.12260945010391144,
        0.15095731119392738,
        -0.027876172661525412
      ],
      [
        0.1912408138510058,
        0.04924864293937439,
        0.12339997151596434,
        0.1483815237516588,
        -0.07781681109475265,
        0.07824014256305913,
        0.039503423662813134,
        0.14020802796919762,
        0.20166207721384843,
        0.1963741422620882,
        0.18305169701057067,
        0.23488034411595005
      ],
      [
        0.10649079171767988,
        0.18297425613637144,
        0.1142308233878981,
        0.07532917311939707,
        0.34490431454346115,
        0.1315009847022296,
        0.1269784504642565,
        0.12229115273749076,
        0.03626401034007427,
        0.18443005805530516,
        0.0151900430410798,
        0.0076176142364282684
      ],
      [
        -0.035545581909556694,
        0.06263173256832784,
        0.2015774733286382,
        0.05746523321524443,
        0.6800792918137325,
        0.060341081872101444,
        0.23523397169006927,
        -0.004349868767571007,
        0.01988735577093644,
        0.12704910126022084,
        -0.004934879148023682,
        0.019824859589071035
      ],
      [
        0.036074588948715396,
        0.028089531914814374,
        0.15615129894375093,
        0.16818279464292735,
        0.4408252526426668,
        0.17169299368825006,
        0.07372999948212387,
        0.07736013156586996,
        0.07209915910408735,
        0.144635861147369,
        -0.012125857932477594,
        -0.0015848876592599894
      ],
      [
        0.042513026945448465,
        0.021749711253282247,
        0.10649168532670568,
        0.19280463959799574,
        0.09859309992723252,
        0.1982472670086933,
        0.20143070330651663,
        0.15629432611048144,
        0.1638686565046005,
        0.04188773900088121,
        0.1382016426601522,
        0.05000180963482749
      ]
    ],
    [
      [
        -0.36965410760195394,
        -0.18958420811135404,
        0.077458433026606,
        -0.34153459196294933,
        -0.3025772362775827,
        0.29670039812801924,
        -0.24774859921176978,
        0.711592379381514,
        -0.32534799915999707,
        -0.5783292323282587,
        -0.43224137518037775,
        -0.16435550416252664
      ]
    ]
  ],
  "biases": [
    [
      0.047713998861562246,
      0.12217810392122978,
      0.026084552514423192,
      0.03776913042256903,
      0.6608800382474226,
      0.1864733637157913,
      0.23029704945329846,
      0.18361447759985985,
      0.15749456018732766,
      0.17145799853255458,
      0.16911729760388014,
      0.07715545943054199
    ],
    [
      0.21941929567676124,
      0.032354672767257384,
      0.12309890868390923,
      0.09385726235026541,
      0.07451318737120692,
      0.22585372048276267,
      0.18821365449685265,
      0.40150903587225567,
      0.12703852426900794,
      0.23730852448871662,
      0.15731806480430488,
      0.05588818064316929
    ],
    [
      1.1582957738901074
    ]
  ],
  "activations": [
    "relu",
    "relu",
    "sigmoid"
  ]
}