{
  "weights": [
    [
      [
        -2.295426028703704,
        -3.6103174366641033,
        -1.250733806650499,
        1.0881894689198706,
        -0.6399638073778893,
        0.9019238343010664,
        0.7888934476123814,
        0.10923031770754076,
        -8.564568820274527,
        -1.3944067037372039,
        0.5580152778736012,
        -0.2628586001141765,
        -0.0916934350553037,
        1.538728552727165,
        1.692298299369435,
        -5.457159476342784,
        -11.095385188144355,
        9.035647912627907,
        0.5057234626736293,
        -4.255418087241139,
        -0.6461839880427619,
        -2.780080432272882,
        -4.269771087904166,
        -7.852815520323102,
        -4.832704233619732,
        2.0485183955437787,
        1.0319070219757593,
        3.120827250747479,
        -1.883173590800653,
        3.0869326821908176,
        5.929877291820816
      ],
      [
        -1.8474561247893624,
        -3.2917073976786657,
        -1.195608077245294,
        1.0822080688023668,
        -0.5071468566870642,
        0.21131199167061143,
        0.7617992668534249,
        0.05762649422210567,
        -6.385525331381087,
        -0.5563572771719705,
        0.8835404948601184,
        -0.2378313740720119,
        0.1911351150162226,
        1.0702896075369732,
        1.3355472218466653,
        -4.125037445470346,
        -8.689417088683884,
        6.46534902284412,
        0.060957346963429054,
        -3.466005935713339,
        -0.7136302611129488,
        -1.676654840114862,
        -4.275617202997151,
        -6.0325994624369255,
        -3.8154903573816847,
        1.544714426109656,
        1.450153135673692,
        2.694131375202899,
        -1.6412669032561829,
        2.5344454763196973,
        4.270922774730409
      ],
      [
        -2.3639133877045526,
        -3.6273455406569086,
        -1.8004537417190871,
        1.2515157088245186,
        -0.12582029308292914,
        0.4236479261859989,
        0.8825537268589008,
        0.07487420162894537,
        -8.239940928583426,
        -1.515228050186917,
        0.7232871554751636,
        -0.4304020414589907,
        -0.1676693970238611,
        1.3547417837417834,
        1.4411187087765014,
        -5.365905757951353,
        -11.022816714891414,
        8.759010767022108,
        0.34999526212083,
        -4.4493162120423495,
        -0.45392189675572436,
        -2.32599001133181,
        -4.493478481885369,
        -8.258682515817469,
        -4.160480016444058,
        1.6659585974559563,
        1.2046344613592692,
        3.5583903718228025,
        -2.18007786600954,
        3.3284718840697383,
        5.530884797477455
      ],
      [
        -3.0165544888176212,
        -4.824011957107106,
        -2.3135553323206515,
        0.9593882632362678,
        -1.0411906985060932,
        0.7864357263996872,
        0.8546411131256274,
        0.8170667415554348,
        -11.369496087580835,
        -2.036798093892012,
        1.1954894796175766,
        -0.43923906268522755,
        0.4847421773209784,
        2.0268112484420033,
        1.9426888837394891,
        -7.3938220512938795,
        -14.60741296983488,
        11.151454118945834,
        0.3286053705741136,
        -5.557264793608309,
        -1.2647642856163643,
        -3.2228881379289716,
        -6.29566278872397,
        -10.35688426659157,
        -6.194471072839686,
        2.2081043846577395,
        1.9832186443527122,
        4.025708692939722,
        -3.3123546901825502,
        3.9170473875951797,
        6.726851238006934
      ],
      [
        -1.887494348959061,
        -4.110710015850837,
        -1.2091900719167952,
        1.375879039832955,
        -0.7712184567536378,
        0.9774303357335806,
        0.41682084429789545,
        0.4469501870849208,
        -8.282099013588425,
        -1.6301273508575185,
        0.9457702789591199,
        -0.3946612917870228,
        0.2573960488627795,
        1.4013971824765632,
        1.2628544633480512,
        -5.052603222700259,
        -10.96988523391117,
        8.509928690210508,
        0.47681852787940043,
        -4.089911578017004,
        -0.14429929375828143,
        -2.8634736432010306,
        -4.253139595413018,
        -8.177470915762518,
        -4.601432338821426,
        1.7909941829970413,
        1.068833143762023,
        3.3527183804613174,
        -2.3997708909560496,
        2.9700347245548713,
        5.304236010395222
      ],
      [
        -1.95686519003684,
        -4.2290219961651045,
        -1.574053462848511,
        0.6315988961560849,
        -0.8404698405211839,
        0.5202954742368355,
        0.7757958167146082,
        0.07415687650006321,
        -8.802997441870497,
        -1.726459899868356,
        0.7238608986773303,
        -0.7868743007614637,
        0.30213711948875654,
        1.460913265018907,
        1.776194974751283,
        -5.5330900547607245,
        -11.858514785038157,
        9.515943362772012,
        0.26124091126071,
        -4.186550782641486,
        -0.8504692833139811,
        -3.0690709989114238,
        -4.885205462553152,
        -8.75091892001242,
        -4.6918222989177,
        1.8640181780243867,
        2.0540967921087905,
        3.8041468044832225,
        -2.187452304469268,
        2.8745107842990105,
        5.505876620311644
      ],
      [
        -1.2357051022323788,
        -0.9574999340349422,
        -0.7684659475168371,
        1.6615849157410998,
        0.8574200781922258,
        0.7835364106851438,
        0.728346288345437,
        0.18732406087810774,
        -8.916428104459213,
        -0.8326886516641623,
        0.5496587736554711,
        -0.5774319535168853,
        0.4635377003361492,
        3.160241264198631,
        3.1242189749126412,
        -6.427443634329451,
        -11.164404101971279,
        15.221401673932718,
        -0.6008392479873921,
        -1.1422642686413156,
        0.2519198478001564,
        -0.8541434013473082,
        0.47926389672417036,
        -16.458690096654006,
        -0.31362634864534966,
        0.22545113678393902,
        -0.19157734306386595,
        4.302451150732092,
        -0.6055914517905417,
        -0.34750054125410024,
        7.411356212919182
      ],
      [
        -1.6689560435451785,
        -3.12055701037847,
        -0.9865966421322687,
        0.587927800475287,
        -0.041372933622699934,
        0.5663127276787576,
        0.38981662749960344,
        0.17346526735997805,
        -7.002246298200143,
        -1.0218932349304026,
        0.5300425255720691,
        -0.07953407401130853,
        0.08761779534617892,
        1.7152618558921975,
        1.455996686086789,
        -5.054276340769658,
        -9.581928839612027,
        7.687022182089589,
        -0.024221605030012777,
        -3.2058725178034218,
        -0.23413866614063578,
        -2.31204191121602,
        -4.006585570304473,
        -7.0877902019884464,
        -3.939128487778656,
        2.010071054811756,
        1.298775226858508,
        3.1211543024099284,
        -1.568570178975177,
        2.403345537666488,
        4.552865868121296
      ],
      [
        -1.533665745805168,
        -3.1389088645976257,
        -1.636902143622016,
        0.8283339373298271,
        -0.20913448591280034,
        0.47062785192014656,
        0.8199711402930301,
        0.030821357740460926,
        -6.773166755015253,
        -1.315345682550467,
        0.7954727236373524,
        -0.6754820451815843,
        0.3584548513066103,
        1.4410541170936577,
        1.328753774665134,
        -3.8928157975029514,
        -9.287352837112739,
        7.3214719261285195,
        0.4125903996496958,
        -3.2016245273256594,
        -0.39334022373528466,
        -2.331056524430626,
        -3.5630273940078925,
        -6.80088208778403,
        -3.0544670299225696,
        1.6837553842434583,
        1.235616224009006,
        2.838391659938055,
        -1.6514156974849634,
        2.134724797049057,
        4.198451107280686
      ],
      [
        -1.3113738474672916,
        -3.2904350828114515,
        -1.1694979809654809,
        0.8693596011611708,
        -0.6297137732876913,
        0.2710482922279147,
        0.6429825075692399,
        0.6432377835909152,
        -6.475926867830863,
        -0.5162175637499635,
        0.4226938973842704,
        -0.4775369325302042,
        -0.08984719627273771,
        1.1265717937951385,
        1.0882584566685787,
        -4.209212395886921,
        -9.006525332621944,
        7.5804547988600515,
        -0.12420000465410405,
        -2.949171120972764,
        -0.2639769457836195,
        -2.0944568360304174,
        -3.9507496912493005,
        -6.344907425328194,
        -3.913495017660146,
        1.9045802956894728,
        1.204064010163497,
        2.74548462482312,
        -1.4803194273349132,
        2.41661766596315,
        4.407739329207528
      ],
      [
        -1.3205886409359229,
        -2.514550476216364,
        -0.968938476342721,
        0.5475330713525841,
        -0.3534552516677638,
        0.2153956221651008,
        0.08658808753447024,
        0.0546383078302922,
        -5.203618742884435,
        -0.8956525033743793,
        0.805659170502068,
        -0.007199905143588247,
        0.5678913248051998,
        0.8775791097485978,
        1.4202397432525489,
        -3.334658452159247,
        -6.7958083836214875,
        5.213715757739306,
        0.3817303399539218,
        -2.4313544278982344,
        -0.2097061059647345,
        -1.5539484775936514,
        -2.9505430701911903,
        -4.575742930234763,
        -2.551181482174157,
        0.9121362340874977,
        0.7590210516074802,
        2.3636237248070198,
        -0.954628438336,
        1.6411255839094812,
        3.246718694991108
      ],
      [
        -2.6829188877517027,
        -4.43705907263474,
        -2.2348449474140892,
        0.8404518147512299,
        -0.3803174393763865,
        0.4618821407556477,
        0.8015227629249415,
        0.10557185474113909,
        -10.073530319586984,
        -1.3065286417612618,
        0.9373432741566894,
        -0.45181036929600865,
        -0.17828317988551545,
        1.954185898018809,
        1.19587178555367,
        -6.482229446329833,
        -13.023733647965688,
        10.255523952041237,
        -0.09819141476578093,
        -4.718936354643668,
        -1.0135179433004973,
        -3.206593021996784,
        -5.717242163391145,
        -9.373591828948284,
        -5.9068891342888525,
        2.2380476348617897,
        1.1843517093977165,
        4.033540500920281,
        -2.610721335926631,
        3.659289123423229,
        5.951935228790352
      ]
    ],
    [
      [
        0.17209019117494057,
        0.20378126867766105,
        0.5326771088426435,
        0.6387902891730828,
        0.3967684058877232,
        0.7629996927292575,
        0.7503145927054143,
        0.2595293740287766,
        0.7203158122011273,
        0.2434633236614786,
        0.3135304714220445,
        0.2023833716186789
      ],
      [
        0.6641749348763463,
        0.6640112087311583,
        0.6338490671452917,
        0.7078566323098469,
        0.27778965823950114,
        0.15605235872571951,
        0.38511425944700856,
        0.1519101318372033,
        0.11746201854708534,
        0.32169400602474113,
        0.03694862273334553,
        0.7685764562119144
      ],
      [
        0.6742060440251831,
        0.4235859340965031,
        0.48757305095344855,
        0.7891452346482639,
        0.6339597121651098,
        0.792577174632494,
        1.1001367487849534,
        0.4654557995724946,
        0.41479106373788344,
        0.658013043519312,
        0.3819630393944225,
        0.3310374938448827
      ],
      [
        0.7905122795643762,
        0.09539432524922081,
        0.016030164779206543,
        0.5336890076824184,
        0.05979031219427379,
        0.500974059353021,
        0.46872958207662574,
        0.5099089073831926,
        0.31158699305404597,
        0.7284629442478919,
        0.4353388587081765,
        0.5500105471088823
      ],
      [
        0.17123198098187528,
        0.05994706346395397,
        0.4158673741637077,
        0.775943790590658,
        0.5285764176801422,
        0.4331768113431712,
        0.6776905918946322,
        0.2688192747331549,
        0.8050945233970982,
        0.42228563821683746,
        0.39646058511140314,
        0.7965750973326468
      ],
      [
        0.2938331926308223,
        0.7108737806446624,
        0.7524427594159478,
        0.5568523029410608,
        0.7942244734820574,
        0.6932480569265604,
        0.4163832023355687,
        0.14059292237168722,
        0.40686515064316414,
        0.13378400218444392,
        0.6478095869247134,
        0.29937784459153716
      ],
      [
        0.6926776675361671,
        0.3052747374243308,
        0.2778989593428251,
        0.6811646000907713,
        0.7585566638218166,
        0.41959918564796744,
        1.0465465965557574,
        0.35197199781396893,
        0.673327889026888,
        0.2129990260673038,
        0.4065583814464114,
        0.5067153999749232
      ],
      [
        0.7938753520755165,
        0.055094802633236774,
        0.44464311266235107,
        0.3088995994838844,
        0.34375867069780974,
        0.46118951331243785,
        1.1469716634232847,
        0.5117061388364329,
        0.05306718644426434,
        0.37648907141258287,
        0.1418842097494996,
        0.7237549978495829
      ],
      [
        0.40091043077276795,
        0.600651536931606,
        0.7007999851395031,
        0.6894334071946722,
        0.2575167455034009,
        0.5120289500622575,
        0.7323751483782867,
        0.5304547844940746,
        0.2658513379480535,
        0.29252327779968396,
        0.6936162856639981,
        0.2573260153459156
      ],
      [
        0.19962039470874415,
        0.33742077202753296,
        0.26954303576975924,
        0.7663362121144157,
        0.35230103094766557,
        0.7261292673612778,
        0.4933597329620323,
        0.6144577193408326,
        0.1068715401792907,
        0.6664236340012665,
        0.050388754387542964,
        0.6977471305879219
      ],
      [
        0.07572663842873481,
        0.23845007680939928,
        0.40383651107899915,
        0.033659247065815426,
        0.4147772596032664,
        0.017050064133325778,
        0.9525894388322603,
        0.7110206904269353,
        0.4201357122520092,
        0.038933082335674864,
        0.09005465089412115,
        0.4954656786028779
      ],
      [
        0.45236959480482775,
        0.5763625706133544,
        0.7162951393288994,
        0.5178520747056087,
        0.2168360193101455,
        0.5460663641766775,
        0.313071806582982,
        0.48747602415032976,
        0.21171146814475056,
        0.5453519172773128,
        0.12099812132435407,
        0.5228983848950709
      ]
    ],
    [
      [
        0.4155146633630103,
        0.7681831969837167,
        0.5629716307384288,
        0.33586911495695587,
        0.47853202897793007,
        0.5443841825998922,
        0.682598500291985,
        0.574184499336013,
        0.2383481082102987,
        0.6493958571562407,
        0.4896542091205928,
        0.4789456657910792
      ]
    ]
  ],
  "biases": [
    [
      -8.188760173665878,
      -7.075519490032444,
      -8.315819010346798,
      -10.94615787127883,
      -8.204588090967952,
      -9.036983832803385,
      -3.458139924835703,
      -7.172025907766567,
      -6.425639199939688,
      -6.717138281085499,
      -4.819741405138757,
      -9.998694900080208
    ],
    [
      -0.5483881473157622,
      -1.53346798601699,
      -0.7524832916742389,
      -0.6028501521833587,
      -0.8863030117614972,
      -1.08316701324755,
      -1.388271909958392,
      -0.811226123766786,
      -0.0635460647285506,
      -1.3019467263601916,
      -0.6734452296453608,
      -0.9150983837797342
    ],
    [
      -3.167114971376115
    ]
  ],
  "activations": [
    "Elu",
    "Elu",
    "sigmoid"
  ]
}