{
  "weights": [
    [
      [
        0.07257566231201178,
        0.03993800085353766,
        0.09885303745416069,
        0.1757338577642662,
        0.12929603988037688,
        0.002861508694331328,
        0.0039008884356566873,
        0.08870673473489503,
        0.12710240092107503,
        0.1397126982437812,
        0.11521234524466985,
        0.12418542652380542,
        0.1471303397526291,
        0.16624191589840334,
        0.03176357355677235,
        0.16202123094681933,
        0.06506237589950793,
        0.04780456739543923,
        0.14600347320169105,
        0.08393847069844605,
        0.11767231476149374,
        0.013020045492263328,
        0.11128578519819257,
        0.10976280733628281,
        0.04569843368859505,
        0.19199241720843596,
        0.10651089663135851,
        0.0919437289742036,
        0.11152264983303031,
        0.041693857525639616,
        0.008705854384631673
      ],
      [
        0.14854826824331413,
        0.00604115657936416,
        0.10798293845434286,
        0.14393479410567908,
        0.10430339743308603,
        0.00266692489966741,
        0.09095214205117375,
        0.027046582728389973,
        0.005033630866997399,
        0.11944600609186923,
        0.06191275243450696,
        0.10028671797045452,
        0.14150275059181833,
        0.19322652284156666,
        0.003536506665281321,
        0.03636504705108459,
        0.12490518612735814,
        0.1944565843792954,
        0.08741387948123444,
        0.07965026386329302,
        0.11472699093190224,
        0.17041239974618982,
        0.011838827665978022,
        0.12703549549481408,
        0.16523130588407575,
        0.11944330054873897,
        0.17030665705761128,
        0.183892758876104,
        0.19657127540866443,
        0.18595298054451037,
        0.02670540202877658
      ],
      [
        0.18590175985854449,
        0.0017497183248745157,
        0.004852055997506071,
        0.022820080842929427,
        0.07693632439096157,
        0.14416705312060005,
        0.08883248720062224,
        0.01752595930108161,
        0.023114322154774648,
        0.06341144220427103,
        0.1566457580297492,
        0.06394291316788243,
        0.1594811385280653,
        0.08152918526356016,
        0.04014881320200836,
        0.0649020524421249,
        0.021152315598616085,
        0.1513910048925383,
        0.08497197369004308,
        0.04180741690628964,
        0.13547882293746333,
        0.1772286010257656,
        0.187410934441744,
        0.1170993094144017,
        0.036196120293160945,
        0.19522615493761714,
        0.015326275716879589,
        0.012831246443627401,
        0.07254511036977809,
        0.1587337506968262,
        0.013420919182823794
      ],
      [
        0.19940117285543316,
        0.021711789560995478,
        0.18245154804467484,
        0.19014641289650072,
        0.17444675708458143,
        0.03697728147179966,
        0.08592845518835299,
        0.07827609716949688,
        0.1466684388869686,
        0.057768076649643646,
        0.0006497307500322553,
        0.09306326487085366,
        0.1013544981725276,
        0.08441805352255731,
        0.19362677165785577,
        0.07482053219499539,
        0.08299099841626299,
        0.050799962656817625,
        0.11318369955862603,
        0.06899733098181254,
        0.08886696530787329,
        0.07179110547997317,
        0.0960527379876922,
        0.022558336735779165,
        0.15252279236154342,
        0.1010895270012685,
        0.17595240077445867,
        0.05051132076691331,
        0.08347841731376522,
        0.17462239676158084,
        0.01815120055467954
      ],
      [
        0.1757997850718473,
        0.1442968511734163,
        0.1556856015075286,
        0.12898951237590162,
        0.19431143635935103,
        0.1533359016039084,
        0.11123563731506075,
        0.10864050294946004,
        0.09784740093836397,
        0.016486770820072928,
        0.09499250885728795,
        0.14732473861735917,
        0.19995320619698523,
        0.15477122647601427,
        0.08053292847596495,
        0.19587838334220373,
        0.18558552111960036,
        0.18214868246749655,
        0.1251536745804984,
        0.1017410993830056,
        0.13342851708392475,
        0.07342305789652083,
        0.16298153237816204,
        0.1811647348064694,
        0.0630649638256873,
        0.07893190776257147,
        0.17219071789834692,
        0.16484645702056283,
        0.10444322927203549,
        0.16829934318781606,
        0.18910594663472347
      ],
      [
        0.14988381818667912,
        0.16674694462658088,
        0.18576278795195197,
        0.09008442250740228,
        0.008535328978833084,
        0.12285349481451956,
        0.017533222990920645,
        0.17448148509110262,
        0.03577725845966597,
        0.19468965507206992,
        0.12361200144035152,
        0.08716671874807289,
        0.0714657545069757,
        0.1455751410333465,
        0.19071705296419497,
        0.06350156514360573,
        0.041760480691226516,
        0.03584298304430274,
        0.17399381314488122,
        0.01214875780483776,
        0.14878735129543555,
        0.11438538418726302,
        0.06821728129668753,
        0.059279647975854846,
        0.17880213923353788,
        0.17515263707172873,
        0.05082191488242597,
        0.01991771890174655,
        0.06785673024340508,
        0.09795448844972052,
        0.12807586051998296
      ],
      [
        0.01419153512819283,
        0.043811362125379553,
        0.11984451918327751,
        0.1850878431596169,
        0.05014859632147212,
        0.15437760808280465,
        0.047938156423007944,
        0.19581046312421457,
        0.010375300152621472,
        0.16665230756234362,
        0.05056782410321524,
        0.08925876062129123,
        0.11090432137265886,
        0.06096700709991959,
        0.1177009101207819,
        0.030579857989695196,
        0.004396582988443812,
        0.135735715775176,
        0.09376271091748907,
        0.10484980027203801,
        0.07672536349588162,
        0.18448372596787466,
        0.19457403300954496,
        0.0825263337269357,
        0.06116307846149294,
        0.12849215671273967,
        0.010070861686798407,
        0.19592921368703434,
        0.15780883141917657,
        0.15310750365097764,
        0.018314511096638553
      ],
      [
        0.046519470377332915,
        0.18632765736908824,
        0.0944726166857181,
        0.1477354899672211,
        0.02992706352728435,
        0.0015927691274256368,
        0.13449102478904748,
        0.10061937218155492,
        0.15198505824744568,
        0.09645962237304259,
        0.12007672116807723,
        0.1490476587438584,
        0.14687405982968757,
        0.15305448767544585,
        0.015748713532296843,
        0.07357540432654398,
        0.06064643332380625,
        0.15677035865421182,
        0.1689680102583175,
        0.14776442522173103,
        0.1848039039426342,
        0.0974918049018103,
        0.09627251801846659,
        0.1530864076073444,
        0.04127404628389248,
        0.106969618085312,
        0.07319618648849144,
        0.14676012209321967,
        0.10061560216699303,
        0.07899739798088203,
        0.1431550191864067
      ],
      [
        0.180206362079303,
        0.006109872458708594,
        0.18488337479463632,
        0.026236877437940974,
        0.07656762989189769,
        0.11728356299154873,
        0.03230868328766059,
        0.01529709631460717,
        0.15435656420817725,
        0.019318466326153423,
        0.14600026273197095,
        0.016911796303136085,
        0.15460988346149418,
        0.026454882919225868,
        0.1161822241171521,
        0.11374264063036243,
        0.07024077977055485,
        0.12512842245047323,
        0.06343843324817083,
        0.08801374258349313,
        0.1830451584134348,
        0.07428279832485453,
        0.12903369987755664,
        0.07108356023284919,
        0.17394036687059966,
        0.14060306605436765,
        0.058734547294240665,
        0.18208355159855238,
        0.00954671004311364,
        0.1676401155771135,
        0.009811042418875975
      ],
      [
        0.08676266510853767,
        0.18579782789269178,
        0.008197800396812968,
        0.1673216874118041,
        0.18469025729105942,
        0.11657342892241912,
        0.04243978819093445,
        0.19899156016968808,
        0.07484031481481006,
        0.025453457390115484,
        0.11830024829044623,
        0.11568577333882125,
        0.04706401546683859,
        0.18873771548923443,
        0.09567971266065925,
        0.014251373816478168,
        0.10706215375647732,
        0.05622983329323964,
        0.18731044900104948,
        0.09218118425482887,
        0.17409235843333437,
        0.05659407884574029,
        0.08720690185764879,
        0.15700226961002103,
        0.14909184536960837,
        0.013844598719567953,
        0.08385604839709665,
        0.15087512666047734,
        0.1062285185153983,
        0.1742544826728822,
        0.13140695752422185
      ],
      [
        0.08706963447245955,
        0.006798008366425399,
        0.16824966830023594,
        0.1581761612633146,
        0.18249259736747983,
        0.00687343942596251,
        0.034752849233531585,
        0.12201316955435107,
        0.1056855771894876,
        0.06343774242120823,
        0.0459951298059667,
        0.06338917127493945,
        0.195534480285054,
        0.1830845891181932,
        0.15120488009554367,
        0.12597336736054476,
        0.03336578272987519,
        0.039262316777429654,
        0.19145887108980428,
        0.10843551229704478,
        0.13492365844310997,
        0.07483142130203907,
        0.12536244098835592,
        0.07925121862324949,
        0.11563975562795605,
        0.12192662689519614,
        0.13973126733466779,
        0.14652775146797037,
        0.18925153491287725,
        0.16367065976450412,
        0.010988182083978872
      ],
      [
        0.0622310814313438,
        0.12974237655210744,
        0.019316606889626282,
        0.11648007211112525,
        0.12973561788492574,
        0.07389045457847669,
        0.15310168235597785,
        0.11487086010786844,
        0.17665276430606536,
        0.05438427229029334,
        0.11223840425233704,
        0.19384520804936517,
        0.02016927225847754,
        0.16330081200176036,
        0.1772514499670444,
        0.07220680428298627,
        0.006815105334442814,
        0.07121505460020883,
        0.18869729548452993,
        0.03794094758382544,
        0.1091399814634444,
        0.005443311940835271,
        0.15322866570727053,
        0.1796830681243564,
        0.08609754905495097,
        0.1960147618409909,
        0.09052383067183747,
        0.18225171973599824,
        0.04064811368498278,
        0.1091840147761903,
        0.036867749567044285
      ]
    ],
    [
      [
        -0.06609700178751544,
        -0.07884649005259982,
        -0.18607364279563937,
        -0.09910561354348202,
        -0.19382725644933027,
        -0.17960910561289511,
        -0.12425535043238435,
        -0.12384639582093855,
        -0.08418169834475119,
        -0.12988665771394234,
        -0.19799812942338046,
        -0.14545316273929007
      ],
      [
        -0.12013354202284707,
        -0.06999577946657826,
        -0.029431271701124303,
        -0.13269929880706216,
        -0.15952236373574255,
        -0.19486236624023368,
        -0.08329497823848124,
        -0.15493503043694123,
        -0.15436939179049897,
        -0.08600264087421955,
        -0.11930968619390503,
        -0.14357337814092436
      ],
      [
        -0.04014556568529859,
        -0.16354824110423444,
        -0.13091184783236828,
        -0.08606213826486867,
        -0.15982591073035468,
        -0.07852289733853604,
        -0.11783964445398545,
        -0.06877267151017163,
        -0.0785621001233348,
        -0.17378034932076408,
        -0.1925585619160705,
        -0.07340695119170916
      ],
      [
        -0.13849151608719348,
        -0.10853938462050203,
        -0.09277341935233846,
        -0.1521947244966868,
        -0.013362787966445326,
        -0.1108480460076433,
        -0.1781815591395401,
        -0.11013592802660285,
        -0.007412856261920862,
        -0.018063297771885818,
        -0.005662162127428851,
        -0.003100891595764256
      ],
      [
        -0.19975360696121455,
        -0.08031602058169923,
        -0.048215547468391254,
        -0.10864878162973024,
        -0.06585749445825066,
        -0.09698246829894452,
        -0.090811403988357,
        -0.0923748375007127,
        -0.12398242599029966,
        -0.1591667036668844,
        -0.1480712827176796,
        -0.02814242612465487
      ],
      [
        -0.08525943088908218,
        -0.041212853100057775,
        -0.11125400509419989,
        -0.1157615916674093,
        -0.05819733371580673,
        -0.19088315151707164,
        -0.04101182131923187,
        -0.07140980112483265,
        -0.10015148990411409,
        -0.014268366867389954,
        -0.1993509743180026,
        -0.07587881985084667
      ],
      [
        -0.14969350982607368,
        -0.1950706105732575,
        -0.1867745220081853,
        -0.08394995961200488,
        -0.163172328247791,
        -0.12502813646218272,
        -0.04291111543232418,
        -0.19680721443022994,
        -0.08967555984949399,
        -0.12316211795225561,
        -0.16307865413906272,
        -0.10538141976388136
      ],
      [
        -0.06533843530447736,
        -0.11567049412219044,
        -0.16725614313026715,
        -0.047585698979335254,
        -0.04331176482193676,
        -0.022169925848268615,
        -0.06637783259987538,
        -0.13075122170917783,
        -0.04482167232229783,
        -0.14950359120379314,
        -0.03560127341444857,
        -0.013701439978818543
      ],
      [
        -0.11841734379634081,
        -0.19410166832700915,
        -0.1610379502327918,
        -0.05385083507416535,
        -0.18921668405851585,
        -0.04487624534819899,
        -0.031598142022946744,
        -0.07545317203694711,
        -0.0803045584915899,
        -0.04118782885868365,
        -0.06453091561864417,
        -0.03364930724730346
      ],
      [
        -0.11623476168728657,
        -0.0047533611365331895,
        -0.1912264593945601,
        -0.027632572266330112,
        -0.0582838504338444,
        -0.0388549795644717,
        -0.04374343018197767,
        -0.15708814860164266,
        -0.1725987783207695,
        -0.17552899395356295,
        -0.12399664100074388,
        -0.06185827462377054
      ],
      [
        -0.04134071396042299,
        -0.031668813305271215,
        -0.12170226601569327,
        -0.15857666772568468,
        -0.09295532627548624,
        -0.10934776593940702,
        -0.07357049955964434,
        -0.13444309897373263,
        -0.07351004231283828,
        -0.10351306423472706,
        -0.19233538607310482,
        -0.036198562118085066
      ],
      [
        -0.19612116080127132,
        -0.025578698526564976,
        -0.18278300889553362,
        -0.16307575621040246,
        -0.11297597510114406,
        -0.09166584208947265,
        -0.19966842017142514,
        -0.012001849041719402,
        -0.05532827976855567,
        -0.15161821509818452,
        -0.14545485052464582,
        -0.03176937750165933
      ]
    ],
    [
      [
        0.006323323831425737,
        7.945473761443302e-05,
        -0.10581130469336976,
        -0.03800911486116114,
        -0.008087299675750696,
        -0.07118319349310129,
        -0.08504677312923264,
        -0.01126905367633234,
        -0.14672062976101244,
        0.043749159699473905,
        0.020777295032798352,
        -0.019762584495306146
      ]
    ]
  ],
  "biases": [
    [
      0.19259181373950482,
      0.19543645370952176,
      0.05203240717703494,
      0.14865889510156494,
      0.1960647851075575,
      0.1858057453009458,
      0.16664150996466187,
      0.11405832373958612,
      0.07024501463848751,
      0.01984966293314615,
      0.04894002986655075,
      0.14187228534625607
    ],
    [
      0.12862430924996907,
      0.12594688609701737,
      0.1397257562627613,
      0.18514475815267525,
      0.13503797915906768,
      0.007467012205826796,
      0.03914576068312871,
      0.1493955016611717,
      0.07351494270706856,
      0.13713704754338907,
      0.16662977976377652,
      0.0402642781723589
    ],
    [
      -0.14273848261691136
    ]
  ],
  "activations": [
    "relu",
    "relu",
    "sigmoid"
  ]
}