{
 "weights": [
  [
   [
    0.12316315746284183,
    -0.4882279912686968,
    -0.5744775906388768,
    0.047664973594311044,
    -0.09364102144476202,
    0.3684047149962526,
    -0.4309509825808662,
    -0.512988051421759,
    0.684791333998962,
    0.12561449320088647,
    0.13520963644334594,
    0.17185200798153716,
    0.08039590764651745,
    0.09010814415134653,
    0.00527197636136551,
    0.6426331640690324,
    -0.34228860879103745,
    -0.790846580676768,
    0.3005804523320882,
    0.4153715903865752,
    -0.228372472337703,
    -0.09703572650010464,
    -0.7751337407871708,
    -0.5148926351004476,
    -0.6185222498327599,
    -0.6733840507670779,
    -0.20593315382402172,
    -0.49484982357707563,
    -0.5348791139092782,
    -0.4110928188865622,
    -0.6998468946408565
   ],
   [
    0.2200104736801509,
    0.17855113765517683,
    0.20909682331503204,
    -0.22582338486216366,
    0.8787826192279901,
    0.5516983307107445,
    -1.1478918223242658,
    0.3085904956649955,
    -0.02992553746771893,
    0.2853614873144592,
    -0.6732961151303062,
    -0.2420104408268191,
    0.4104623894402003,
    0.25003880953515367,
    0.59943500953844,
    -1.8587931974335947,
    -2.0674544435626676,
    1.6797568595356744,
    0.6604066407909485,
    0.3272309129120426,
    0.3069137095845385,
    -0.47324803058139936,
    0.6341127880770789,
    -2.682500822586352,
    0.4663391006894634,
    0.5326438422062977,
    1.7168734890958282,
    0.2625216080904119,
    0.6187353642465772,
    0.4511191803406006,
    0.2974590241099654
   ],
   [
    -0.2997385404398663,
    0.363524276028164,
    -0.10889639267288083,
    -1.063983403237249,
    -0.9578958829419749,
    0.06772065250644389,
    1.464595141198393,
    -0.4024782504858044,
    -1.1063862667977609,
    -0.8267579235337749,
    -0.06379460645335316,
    -0.06069824773764867,
    -0.734927474159241,
    -0.5322221169494423,
    0.783156628565251,
    1.1257679204246476,
    1.437676128110297,
    -0.18602320688521393,
    0.28961000735305803,
    0.6559385363213955,
    0.3999957358191345,
    -0.5997737700096701,
    -0.11280149998638542,
    1.8760301934321182,
    0.6090426188420378,
    0.3458779772718258,
    -0.9692462661520497,
    0.021987618279453808,
    0.34950663652533587,
    0.43799375309760386,
    0.10486462487645419
   ],
   [
    0.43487458625820413,
    0.1938387418127973,
    0.3755220298498818,
    0.307656914740708,
    0.7994041276093672,
    0.3644515969049076,
    -1.2774335787988347,
    0.30400273613224216,
    0.4207951297894276,
    0.5713736086880083,
    -1.2495841327352146,
    -0.2075043519167415,
    0.034750501631965816,
    0.07781172078322014,
    0.547283932206153,
    -2.1772708685557935,
    -2.5216495185215395,
    1.8530156503900987,
    0.2801732521877706,
    0.40158376093194564,
    0.2001763470908594,
    -0.2901823654706593,
    0.5006177480261145,
    -3.013728918450932,
    0.5829279073161943,
    0.708898303361473,
    1.8065317355989436,
    0.41938481082744744,
    0.5634412857204059,
    0.7502364047759119,
    0.7180741859484888
   ],
   [
    0.41109153607510784,
    0.40394705903172934,
    0.4502732712383821,
    -0.02345640711135368,
    0.937838843918136,
    0.3159268695822389,
    -1.4020232572265512,
    0.22797743552495758,
    0.04423739149550128,
    0.48364980361523613,
    -1.3910492650740385,
    -0.2570508568801292,
    0.2732360101881056,
    0.21200098060511452,
    0.7268281665360847,
    -2.179706103546331,
    -2.6044886420081683,
    1.7472132920342018,
    0.5106000078786878,
    0.5149271538041839,
    0.3576798005330568,
    -0.18336293880313564,
    0.5100555979345889,
    -2.713868960132769,
    0.39877637047248665,
    0.5763182263766965,
    1.689231367700211,
    0.48608558002412516,
    0.7170197853980552,
    0.6952782967485799,
    0.4543612568615166
   ],
   [
    0.3096893276453486,
    0.3973725823790379,
    0.07429094216880291,
    0.29166179217453925,
    0.8820576525488429,
    0.4819237827692085,
    -0.9760131496088356,
    0.15801035425236415,
    0.2653519603493371,
    0.3843279387913499,
    -1.2619447104222183,
    -0.11235870528457917,
    0.45145722840293506,
    0.18632741070412884,
    0.4904981103512581,
    -2.2232313963062182,
    -2.4541485684641473,
    1.7370102012132034,
    0.3685467617791548,
    0.5181655305557314,
    0.13442069305037416,
    -0.21242595435300768,
    0.766538167940321,
    -2.788766392435716,
    0.6128227101998337,
    0.4858643836573163,
    1.8899334676303654,
    0.39434528233357286,
    0.5468301637543063,
    0.5817299247012424,
    0.36443021588051305
   ],
   [
    0.2938903375104696,
    0.41965745349730266,
    0.10740944187892582,
    0.34419840875669183,
    0.9205070532039479,
    0.06939753862571929,
    -1.0595906143059797,
    0.341307133238574,
    -0.03717290766693614,
    0.2831338074977028,
    -1.3845570489510357,
    -0.07888512628184147,
    0.20932325839053792,
    0.17120215006183812,
    0.5845932976032528,
    -2.000841804625026,
    -2.0907653284616554,
    1.5603563747993918,
    0.2946836556567334,
    0.2370120939896223,
    -0.04905797174495976,
    -0.4208916758426374,
    0.45249525483406555,
    -2.651453410998513,
    0.26177204217480327,
    0.44169284893111965,
    1.6377259337713177,
    0.19389216434021397,
    0.23043439804780877,
    0.29741432870099466,
    0.2892724929815963
   ],
   [
    0.7478788600579184,
    0.5425546705884393,
    0.41709924910095264,
    0.11880800765465417,
    -0.03399348839787715,
    0.549034535935157,
    1.6434993224906735,
    0.5927556395853391,
    0.5456643304672789,
    -0.008693844716986426,
    1.5246147631123061,
    -0.07232560564526426,
    0.26045720001936085,
    0.4244775482122553,
    -0.07473618507887406,
    2.3408790625285594,
    2.4501154018843154,
    -1.3657601034871685,
    0.4574453423846411,
    1.0395073510385233,
    -0.031877837937236544,
    0.48656398977805865,
    0.585833242673648,
    2.995564742527532,
    0.31463860835714325,
    0.8016480408483483,
    -0.6607836750227233,
    0.9312583258931395,
    0.6787200032364916,
    -0.006691793366339063,
    0.8427539817736466
   ],
   [
    0.4084739451856124,
    0.3744526962987798,
    0.31996721365139713,
    0.15296620372724182,
    0.7940101957232871,
    0.4147998309685088,
    -1.0920100063291662,
    0.2829957427360399,
    0.13720821424909826,
    0.4790565391391584,
    -1.2479789251912274,
    -0.03892402358440134,
    0.4597934024053755,
    0.1903228589660964,
    0.7858662243402192,
    -2.1589106069439037,
    -2.6527871088268435,
    1.6742970023070636,
    0.24993811683124603,
    0.35123988772251097,
    0.22117657043814032,
    -0.2555802726940097,
    0.6826156971068605,
    -2.971616107351632,
    0.5691465421544813,
    0.48581132266462956,
    1.8140664029644273,
    0.4380740013043977,
    0.4859097192630193,
    0.6891326140900724,
    0.7271311605495041
   ],
   [
    -0.31372438605720765,
    0.4648438193229153,
    0.6471898342482043,
    -0.516787564662779,
    0.7711732889315622,
    0.6632332176679608,
    -0.631584116986831,
    0.3201948897320735,
    0.07564606468911818,
    0.5747705206311986,
    -0.31048076411342046,
    0.19386335283226588,
    1.5684592062135272,
    0.8752838364572748,
    0.8705669550475397,
    -0.9512122723188091,
    -1.2303735549745207,
    1.418522076951962,
    0.8285231878856891,
    0.048148273040981106,
    0.5701791952186822,
    -1.1384093992135655,
    0.18561152153218785,
    -1.4756196554482548,
    -0.016947386492906016,
    0.0432474276518191,
    0.9049766809501576,
    -0.059068077166286016,
    0.15378327294574504,
    0.02664791445265005,
    0.03800942192742463
   ],
   [
    0.6901534562760683,
    0.43563428260027515,
    0.38373698147055385,
    0.05394876083675644,
    -0.08106980891513446,
    -0.035838350303472925,
    1.8874982515861716,
    0.4955926269839158,
    0.06734132755788323,
    -0.352078733396369,
    1.3248363751084458,
    -0.23622055706968784,
    0.04731818781357744,
    -0.1899186480357975,
    0.49708752579800236,
    1.9013549879610927,
    2.3735727975432255,
    -1.0337752910098212,
    -0.14809875478486795,
    0.8386397586100259,
    -0.258836101380375,
    0.5062953802672602,
    0.4494610510482529,
    2.562330432884276,
    0.38076964460019047,
    0.7272610017861817,
    -1.352988864423645,
    0.4772804565673214,
    0.4367210545298145,
    0.23306245715447937,
    0.6012244907884373
   ],
   [
    0.5915660019079453,
    0.3266753203381583,
    0.6539823371407703,
    0.31076231727308656,
    0.37721261748013707,
    0.4042033615688196,
    0.8646240971920752,
    0.33824451178809584,
    0.4898009598573537,
    0.09182883190814997,
    1.3274071031855268,
    0.0352138521972751,
    0.27850416176733755,
    0.4986905623074285,
    0.5944119871186812,
    2.147908950311168,
    1.8584206848621572,
    -1.4053491460163727,
    0.5607124191856432,
    0.5936092297509246,
    -0.09412646211354954,
    0.17776188992856387,
    0.42162844584197334,
    2.3815250613988397,
    0.026988683171233954,
    0.3054598767626356,
    -0.49393804678353276,
    0.40134096058590174,
    0.16704282002582554,
    -0.13346757989641939,
    0.2453736663162079
   ]
  ],
  [
   [
    0.11042844332869184,
    0.0014193073471082676,
    0.09558563177803679,
    -0.03332708733304131,
    -0.1540361592417016,
    0.027353884839734853,
    -0.1728777189113673,
    -0.07852043659884095,
    0.013167165906778267,
    -0.06007012913039411,
    -0.04660917068319573,
    0.04822914513310943
   ],
   [
    0.16868752183941182,
    -0.013751977249340464,
    0.1616319192053498,
    -0.033952980307825176,
    -0.186805447265979,
    0.01700058901217058,
    0.11209164623983997,
    -0.1461234279940595,
    0.003174173832405147,
    -0.10512700347308579,
    -0.05160657266466964,
    -0.160853810137645
   ],
   [
    0.34935791968340024,
    0.6927534765967747,
    -0.8586237357725068,
    1.0257646349517588,
    0.9365318681723181,
    0.8877917813939057,
    0.7625962526137483,
    -1.213205778203317,
    0.9512542316974033,
    0.47064738483101526,
    -1.1637248199552035,
    -0.8333108263302853
   ],
   [
    0.3810836971236376,
    0.003043559686671097,
    -1.12186541209472,
    0.2529954471590507,
    0.25117435809767197,
    0.4393960953267196,
    0.10346295519389677,
    -1.4024371740517987,
    0.45616005483038824,
    0.05084308546001486,
    -1.1776268239331726,
    -1.0367971497232953
   ],
   [
    -0.24807554654725375,
    -0.24879327560133513,
    0.09486690201228314,
    -0.8419868565875617,
    -0.7984132393557839,
    -0.5605670069121685,
    -0.5218261562887757,
    0.5617131802604537,
    -0.7510989527030084,
    0.07389585296705005,
    0.6325507160487279,
    0.4851785765510332
   ],
   [
    -0.17143106194868452,
    -0.113858975254707,
    0.9822265985251646,
    -0.6577582993466479,
    -0.29994346207687267,
    -0.3274346357971418,
    -0.17574287592047055,
    1.0070548764330918,
    -0.5309285028348955,
    0.1930693553032638,
    0.9798423125899346,
    0.7937236735568154
   ],
   [
    -0.12353331773347742,
    -0.07577154926013445,
    0.02025571123633489,
    -0.2271140519275232,
    -0.06853680408659646,
    -0.2022999390764746,
    0.1366906887749291,
    -0.12116062441151378,
    0.08129813281077694,
    -0.20534224763713244,
    -0.14140187833520904,
    -0.16161108841755134
   ],
   [
    -0.061861113776513835,
    -0.07420641774252705,
    -0.11909036485638784,
    0.013810469976739554,
    -0.02430042791615378,
    -0.15924961443819793,
    0.1699741112815009,
    -0.04081214845433359,
    -0.12482008562418624,
    0.017927950433258642,
    -0.0879116860376435,
    -0.12498728658483561
   ],
   [
    -0.07497303899355194,
    -0.5086708774654687,
    -0.18442692828656257,
    -0.6052103841145241,
    -0.3307036478988543,
    -0.37999945224911463,
    -0.5536434167723634,
    -0.3117245758275568,
    0.007681540686852805,
    -0.45851824983758577,
    -0.3262298557509608,
    -0.43953360131436015
   ],
   [
    -0.028007071610294976,
    -0.5049811070503861,
    -0.4834324741552701,
    -0.4156192590120567,
    -0.37715645221675026,
    -0.33839169883831116,
    -0.3957550128410004,
    -0.31782375761082404,
    -0.34545707534012826,
    -0.5267090133100911,
    0.1668314267676214,
    -0.12028212775833232
   ],
   [
    -0.39962947763925705,
    0.029438306037058853,
    0.968450234065502,
    -0.48505036678462876,
    -0.32650670657110437,
    -0.5053922369642646,
    -0.44595053684183156,
    1.1484600176230335,
    -0.5556281075075302,
    0.32522682924623947,
    0.6019232634478344,
    0.7355277849908152
   ],
   [
    0.290642840484715,
    0.006431380127501903,
    -0.8223710670279397,
    0.2973640986643113,
    0.449693331155771,
    0.2915734860649005,
    -0.015930469195115093,
    -1.034401705648365,
    0.30817302688657516,
    -0.08754802641736266,
    -0.929107858897982,
    -0.8883084088059696
   ]
  ],
  [
   [
    0.03164174265467932,
    -0.19370217486320007,
    0.4491667396120363,
    0.5858022980654953,
    -0.47088541912510384,
    -0.8805996279786256,
    0.08526758489547452,
    -0.13785423846053768,
    -0.325104587169969,
    -0.22508836879370483,
    -0.7254253086061032,
    0.4141720828031251
   ]
  ]
 ],
 "biases": [
  [
   -0.5410782681816276,
   0.1488098072579923,
   0.43767189619846136,
   0.7150474723060276,
   0.5263686981113334,
   0.25841310824226,
   0.2106529639824343,
   0.8078845041400892,
   0.4489509530728937,
   -0.07162046704640562,
   0.6406882230232055,
   0.6804684426505443
  ],
  [
   -0.06499509402884432,
   -0.18792432145819105,
   -0.23804235192418258,
   -0.4486795314390244,
   0.2161436506789442,
   0.640776861284892,
   0.04865037236504687,
   0.045282631205035166,
   -0.5095868744669272,
   -0.36611277595964586,
   0.6312280525738021,
   -0.7092535451596272
  ],
  [
   -0.927945015186048
  ]
 ],
 "activations": [
  "relu",
  "relu",
  "sigmoid"
 ],
 "optimizer": "adam",
 "gradients": "mini-batch"
}