{
  "weights": [
    [
      [
        0.26810954394438363,
        0.04890623750938797,
        0.32961098009840367,
        -0.5055660598526797,
        -0.1057285403516316,
        0.23224048566811584,
        0.24035654370270457,
        0.1980827840077645,
        -0.27218005750840035,
        0.06326532140193772,
        2.3282332631157785,
        0.015225285056338612,
        0.13999427694495695,
        0.12219631807417171,
        0.07178068289423872,
        0.4877514626133667,
        0.37747769760569366,
        0.02142925318794044,
        0.1457888157792519,
        0.40763539185470693,
        0.0018757611804108851,
        0.26956836346879653,
        0.299966231483591,
        3.1104700472650992,
        0.7041619494084153,
        -0.004592576573953311,
        0.36840484235448145,
        -1.3657201787100441,
        0.46195952300540266,
        0.7693417867291372,
        0.18664770466627012
      ],
      [
        0.08554774719278248,
        0.3365435704058078,
        -0.0011171495260498415,
        0.14588951487370183,
        0.2733227226508321,
        0.06993359706264837,
        0.14379383540117752,
        0.10536429001989617,
        0.3742566019655849,
        0.15528098808431418,
        -0.31685804239338117,
        0.08225172394269306,
        0.3212493204723905,
        0.20612020967118333,
        0.29184107338278653,
        -0.13891080706862033,
        -0.3299100315904368,
        1.238066847062813,
        0.31493954986431105,
        0.12864811402878365,
        -0.03985786811521284,
        0.16686866633592873,
        0.19835345085818176,
        -1.3912103504394968,
        0.18633977059583556,
        -0.06967046353786593,
        0.10677514596911408,
        0.6768101926495602,
        0.1696851860888733,
        0.054894860508112556,
        0.5794701107995958
      ],
      [
        0.46705346963435357,
        0.5997799243401757,
        -0.06347425896393986,
        0.12303781684672244,
        0.5734749613986845,
        0.015924415272721697,
        0.25799827729803637,
        0.04200304813743028,
        0.8744851676714281,
        0.07591532024738526,
        -0.05104060835356995,
        0.3601263849011186,
        0.14695412389022688,
        0.10244901881447399,
        0.1745868938260248,
        1.1302655680254632,
        1.7929779274933226,
        -1.8155433651016284,
        0.43821319923431623,
        -0.0045658509455576615,
        0.5997107001755727,
        0.41790650329018847,
        0.726918358001983,
        1.911200163840531,
        0.42219801200394064,
        0.1280201678168379,
        -0.3067494638564612,
        0.9884572541305137,
        0.14324986489385846,
        -1.150637080515758,
        -1.6978568557150284
      ],
      [
        0.2558715017204501,
        0.13233687287363152,
        0.21394754350048445,
        0.6004679754597388,
        0.15241904739774123,
        0.24333673341010445,
        0.12065758993124436,
        0.2420778372975664,
        0.34226440830997656,
        0.009823262586151899,
        -0.7979096519184828,
        0.23554829476130892,
        0.21871369527414652,
        0.39203225754990256,
        0.3087791543653322,
        -0.6750147276878049,
        -0.4460353586177995,
        1.9424272331202412,
        0.21147803117352207,
        0.22510443016371656,
        0.26332619587149086,
        0.41922809644807946,
        0.5026808962885576,
        -2.83228714475669,
        0.3773114175107824,
        0.10791695537103202,
        0.037034416510220915,
        1.0521809067678496,
        0.0761700781172769,
        0.05173075394930667,
        1.1434423794055804
      ],
      [
        0.0858929816789479,
        0.18063265285112193,
        0.21565624277715215,
        0.36690420286551073,
        0.15495081417979484,
        0.16664366781017545,
        0.1986034562898529,
        0.17054351321087974,
        0.28657190228473917,
        0.10525499470204609,
        -0.6222470760976659,
        0.2497131588071366,
        0.35473843828084484,
        0.19877559146890397,
        0.21546330834593555,
        -0.568101499427886,
        -0.30337268849901194,
        1.5001839188493034,
        0.06656416479053202,
        0.2520463102182537,
        0.0924944179719327,
        0.4427972737992143,
        0.35818085420256285,
        -2.0413576914821885,
        0.29740312010655556,
        0.11707761248064529,
        -0.014496290181877154,
        0.8283701135145863,
        0.11348018622640361,
        0.18064176952854374,
        0.656726856315636
      ],
      [
        0.1524603804115829,
        0.10552844233683441,
        0.31622361433112933,
        0.27194050650959917,
        0.38852669473707724,
        0.4699040366440408,
        0.10920530452025104,
        0.2434658305146346,
        0.3785297230631881,
        0.15956420594416815,
        -0.8808811894156322,
        0.18859690027910564,
        0.0838840136586409,
        0.42955541986697704,
        0.05475214656467568,
        -0.2272740465259291,
        -0.2725220302594022,
        1.0610876302938477,
        0.38838463888358443,
        0.09113628875513577,
        0.3238464501901579,
        0.3479710512287725,
        0.4854566082539182,
        -1.5148518308546137,
        0.2315302542851207,
        0.2012064342940416,
        -0.006955164396036117,
        0.18673398533525662,
        0.4000014938472198,
        0.18778580172109338,
        0.8603031487180995
      ],
      [
        0.07576017051190606,
        0.20224269654778615,
        0.021182693682116154,
        0.2272912867092424,
        0.04964854374001817,
        0.1636920669706329,
        0.040029634530615546,
        0.1709634645831267,
        0.2729573758274982,
        0.1150060278102958,
        0.24190625830538603,
        0.12345226827467433,
        0.188197254221717,
        0.11298732757315465,
        0.11565289601886092,
        0.004141775548902946,
        0.012036617592855438,
        0.2626063759130742,
        0.16631293647566445,
        0.2712351727478803,
        0.20157359738907826,
        0.20563758618229191,
        0.02269866597943196,
        0.10792797633094256,
        0.06821993572430156,
        0.19163184154784083,
        -0.0160334020939379,
        0.039929272532803296,
        0.16236507508137676,
        0.21424774405354013,
        0.053549806274560796
      ],
      [
        0.29608004594279663,
        0.34699400085481813,
        0.19348245390630725,
        0.10399745179658343,
        0.1609720607442632,
        0.2185345280960484,
        0.06859928996358618,
        0.03368292337822531,
        0.09962697608441262,
        0.07060425501100182,
        0.396970859768751,
        0.17901032208676435,
        0.22207348704307944,
        0.14756684842646642,
        0.18371006821048158,
        0.22895657851370946,
        0.2461436487054515,
        -0.10159899897282472,
        0.25445451499027044,
        0.13647218473393005,
        0.22028252763620196,
        0.22986146193460955,
        0.18477126969236046,
        0.8387929120760972,
        0.11532380272827868,
        -0.004006496626032424,
        0.2923974575081602,
        0.07130847588327449,
        0.056432955578476954,
        0.1413644283572461,
        -0.09202898643798493
      ],
      [
        0.1250700803359456,
        0.3958219307716984,
        0.3025089044359315,
        0.3000169004955001,
        0.17857590784512808,
        0.5321517878121029,
        0.07192892679433607,
        0.1828665955846343,
        0.2089090349293803,
        0.19208672173380076,
        -0.7374658747213599,
        0.24767505967686562,
        0.19718464869967928,
        0.4014391444251883,
        0.08570165814346424,
        -0.28119738365347324,
        -0.4317633892464336,
        1.171367127728767,
        0.3791866921591519,
        0.16323012339424792,
        0.24291337401397728,
        0.2848827314456613,
        0.37958803214144093,
        -1.9459726338904748,
        0.12709323567064704,
        0.15318012084976157,
        -0.17341905599696472,
        0.5915696657774198,
        0.30533150917644475,
        0.07709652025825274,
        1.098193328104428
      ],
      [
        0.21358372100911863,
        0.07140114992787468,
        0.17457290528140126,
        0.19068702517350336,
        0.08977332428354565,
        0.07478300674306534,
        0.21086255071817445,
        0.10656160260606633,
        0.27313675638701784,
        0.1862439312272323,
        0.1759827352738179,
        0.2629447846490751,
        0.12394515688688873,
        0.11416905809097559,
        0.2827885855296689,
        0.2291882317951626,
        0.0746722841138639,
        0.25327492638408877,
        0.11333697093403383,
        0.26060997219120935,
        0.15080967356520394,
        0.02688037609234058,
        0.07299437906207143,
        0.03704059840712415,
        0.2252446448668951,
        0.1623170166321497,
        0.06649717378738439,
        0.1163078282329292,
        0.22897209494889786,
        0.056651362628289764,
        0.17780161668258093
      ],
      [
        0.3871197325698093,
        0.05377179492920458,
        0.10007904582138626,
        0.579477510385722,
        0.2790212159798767,
        0.1438994106464655,
        0.22933353550072785,
        0.3951808151126019,
        0.5781768399595254,
        0.2617962422562239,
        -1.4164680461236554,
        0.11565366022375495,
        0.24962976075677035,
        0.5923306898942438,
        0.2572204061316934,
        -1.8311688012949388,
        -1.3306402454128303,
        3.759472218343463,
        -0.17626963228708417,
        0.05708243446686066,
        0.03986986173523445,
        0.7171260212054933,
        0.4638769565607763,
        -4.10152694880995,
        1.03372773331518,
        0.33174383339400215,
        0.6408341727230249,
        1.6649375110113684,
        0.5912813555262935,
        0.6364937886705755,
        0.07214052388098083
      ],
      [
        0.5174305647521625,
        0.2479630914384263,
        0.1040003130663845,
        -0.033955942801968855,
        0.15232515426919777,
        0.23602577207892486,
        0.18579190055925296,
        0.13205319463330295,
        0.31201492359351485,
        0.1326163079253535,
        0.6765785240044782,
        0.2947280950409989,
        0.20972466690640493,
        0.010530656084162465,
        0.04817938962872093,
        0.7787652695917455,
        0.6434099034942358,
        -0.4776623482161991,
        0.04831278251415221,
        0.047894030907296666,
        0.3815642055265768,
        0.36208804479424933,
        0.5674468052776753,
        2.0955749689257988,
        0.23772890382315412,
        -0.23660706133744236,
        0.3207037159225859,
        0.2930455188275169,
        0.2840258467288106,
        0.42546579612710417,
        -0.3007141203357128
      ]
    ],
    [
      [
        -0.4084260697467385,
        0.6647559841380893,
        -0.575586274763978,
        0.9296465834183908,
        0.6977346013420702,
        0.7448758379338735,
        0.22254129232934336,
        -0.2038257322268612,
        0.8577952158564918,
        0.07552391524028138,
        1.010731568144989,
        -0.511537298775519
      ],
      [
        0.9311999167439248,
        -0.26304539119243964,
        1.191817860224729,
        -0.2828958439083119,
        -0.29491306899319936,
        -0.21805445317400776,
        0.31317017685736875,
        0.6571031670756189,
        -0.26584676850694333,
        0.19320707051304745,
        -0.291837858073971,
        0.9164215897287026
      ],
      [
        0.2193396934635905,
        0.17165285697901234,
        0.24450927635272968,
        0.09913460936385167,
        -0.03628074721772847,
        -0.05468356214740852,
        0.15883775567588104,
        0.2575044427673338,
        0.01876167090806925,
        0.0080564060490252,
        -0.12350364275313926,
        0.12175110236551123
      ],
      [
        -0.2096931773246515,
        0.2926031746847751,
        -0.2423482017596883,
        0.5430436135171292,
        0.3638582031453052,
        0.37308295262116487,
        0.043388377887679686,
        0.07942804013032073,
        0.3605142883261986,
        0.09711989711865025,
        0.6913187816349434,
        -0.17873320252243372
      ],
      [
        -0.1551151555080333,
        0.4250315967902198,
        -0.24652135584280438,
        0.3800144508926797,
        0.4785398802278634,
        0.41301190707682583,
        0.16335371806492455,
        -0.07039568696909136,
        0.20040430655158362,
        0.041066043471130374,
        0.5397720912133247,
        0.055309206696880484
      ],
      [
        0.2361128178859984,
        -0.0466770832587427,
        -0.014386293434734554,
        0.17268330257823042,
        -0.03098501931130394,
        0.05534717273793388,
        0.2010312717920799,
        0.18902315583201373,
        0.11113033675849131,
        -0.02575735277391492,
        -0.0014613490940498383,
        0.0019955808461026322
      ],
      [
        0.38767638362178725,
        0.059426903840244676,
        0.2647263089613517,
        0.05984832770362331,
        -0.0876956871660697,
        -0.13635399561239236,
        0.16767428686111038,
        0.3198934740193896,
        -0.20556406682323589,
        0.21423912952590232,
        -0.02648593676991999,
        0.25325165749380973
      ],
      [
        -0.01411101244425172,
        0.3412177809956269,
        0.002818170566553898,
        0.2633939284063843,
        0.23072610764153398,
        0.11348252026539118,
        0.07013104389159323,
        -0.02098268849829819,
        0.35070486151548697,
        0.23411736501711353,
        0.3877906960475198,
        -0.09321506083339777
      ],
      [
        0.1631526734872076,
        0.18508606159616633,
        0.29037114481757037,
        0.02603811106605236,
        0.010414817639962205,
        0.025752733049663024,
        0.06553997889013652,
        0.27951050949511064,
        -0.07480990628590768,
        0.06926566365075904,
        -0.12481103955587157,
        0.29242125800158647
      ],
      [
        0.04759100538920167,
        0.0493757173485196,
        0.0329862946037445,
        0.03862587131378872,
        0.012337680907388399,
        -0.0024920357439715303,
        0.07676275170469085,
        0.20876974092057424,
        0.1882106150957418,
        0.12702507407519026,
        0.15963947671820466,
        0.10032830530853218
      ],
      [
        -0.3837046929312628,
        0.484945087750449,
        -0.38009578283707857,
        0.6853172342045201,
        0.5990534203003366,
        0.40162340917773715,
        0.0321432947508858,
        -0.21200882994753345,
        0.6729267763361599,
        0.1603951383395357,
        0.8379674974295068,
        -0.06785128442262746
      ],
      [
        0.6552054058054306,
        -0.054796803249142226,
        0.5663724892050804,
        -0.2165862593642272,
        -0.1463455011206573,
        -0.1564552927675922,
        0.1648293852730633,
        0.22554446057249106,
        0.024980275786146994,
        0.18244625820291813,
        -0.20237727399669775,
        0.5398598916030928
      ]
    ],
    [
      [
        0.45676757552611574,
        -0.945314841305544,
        -0.2765353057787762,
        0.31990635668514217,
        0.26326840775937294,
        -0.1108518569218314,
        -0.4387944184828513,
        0.16174697778409688,
        -0.31413176489909483,
        -0.06054801920660816,
        0.38222686048768395,
        -0.64282916440942
      ]
    ]
  ],
  "biases": [
    [
      0.556202217227428,
      0.26010834523105625,
      0.9349779119566982,
      0.3235910867132827,
      0.3862017900202695,
      0.22344339330365776,
      -0.053182492573463816,
      0.15439234616343803,
      0.44688047513342366,
      -0.08772935196058662,
      0.42318061899540466,
      0.4754085492882431
    ],
    [
      0.05633919316293514,
      0.509608891891983,
      0.0401050228116019,
      0.0965694909545323,
      0.01228836351812416,
      0.13883182552334486,
      0.10240524581251985,
      -0.021738897689505866,
      0.11485284322061626,
      0.09875631007771211,
      0.07984917247814836,
      0.30102552822534545
    ],
    [
      -0.7336849762456297
    ]
  ],
  "activations": [
    "relu",
    "relu",
    "sigmoid"
  ]
}